extern double DNN_Weight[3][31][31] = {{{-0.564989,-0.452493,0.064697,1.397036,1.098404,-0.863853,-0.651693,-0.368857,0.408767,-0.343852,-0.499634,-0.355567,-1.192185,-0.842933,0.083998,0.377341,-0.135518,0.360728,-0.465395,0.930074,-0.451308,0.018925,-1.341524,-0.158392,-1.842853,0.385779,0.146105,0.366991,0.504483,1.323392,-3.107948},{0.496425,-1.444218,-0.667339,-0.660044,0.166085,-0.151078,1.819559,-0.394244,-1.357563,0.065464,-1.367146,-0.307737,3.726755,1.430728,-0.118954,-0.782802,-0.216664,0.141403,-0.214860,0.746408,-1.034476,-0.245797,0.466065,2.898947,-2.878987,0.058255,-0.490112,0.833998,-0.717976,0.231704,0.262467},{0.693048,0.848250,-0.262877,-0.439217,-0.373154,1.275299,-1.032247,-0.377914,0.776929,-0.298348,0.512119,0.014091,-1.659138,-0.125142,-0.203361,0.508791,-1.429768,-0.343978,-0.406587,-0.303160,0.903919,0.208808,0.224169,-1.543222,-2.065489,0.052729,0.505462,0.741079,0.124539,-0.981550,-3.375876},{-2.128322,0.766416,0.196805,0.752020,-0.524640,-0.021876,-0.367942,-0.844709,1.817282,0.346947,0.808383,0.071670,-2.646325,0.884029,0.623196,0.634103,-0.225880,0.017415,0.016409,-2.402920,1.129193,-0.243379,-0.258783,-0.832331,-1.478575,0.060932,0.262624,0.153081,0.004207,-1.582946,-2.677082},{-0.240852,1.012201,1.086968,0.065443,-0.517184,0.807602,-1.779731,0.871754,-0.808440,-1.667707,0.536901,-0.289240,-0.826607,-0.698811,0.156720,0.337673,-0.787654,0.033905,0.333332,-0.289692,-0.269142,0.279056,-0.512524,-0.435126,-3.034620,-0.258454,0.645760,-0.433989,-0.324929,0.066478,-1.788714}},{{0.202124,-1.034260,0.714062,0.998911,0.271859},{-0.643097,-1.085373,-0.393014,-0.393979,-0.187516},{2.366900,2.895601,-0.084786,-0.646263,1.685257},{0.254693,0.123813,-0.283724,-0.238033,-0.216319},{1.077086,0.248795,-0.484328,-0.601151,-0.045371},{-1.185674,-1.696276,-0.590157,-0.529654,-0.361636},{0.439898,-0.078838,-0.314039,-0.538759,0.030419},{-1.072334,-1.674657,-0.453762,-0.044160,-0.650818},{-0.198538,0.162973,-0.196043,-0.563320,-0.146972},{0.117111,0.608214,-0.534649,-0.789829,-0.209684}},{{-1.207593,1.456251,-3.398352,0.630812,1.866905,1.734136,1.698699,1.605037,0.630937,1.292144}}}; 
extern long DNN_structure = 3;
extern long DNN_columnList[3] = {5,10,1}; 
extern long DNN_rowList[3] = {31,5,10}; 
extern double DNN_mu_train[30] = {-0.002825,-0.019240,4.919111,0.006037,3.420409,3.674993,-3.721292,-0.283649,0.859862,60.235911,-0.457441,2.778374,6.950201,-13.830931,0.033736,0.208109,15.636473,-0.606024,4.093232,5.415169,-7.951947,5.388321,1.718176,2.175746,37.240454,4.601106,4.218490,9.475301,-0.517198,0.784028};
extern double DNN_sigma_train[30] = {1.163881,1.140407,7.265950,0.812498,1.646335,3.285084,3.650921,0.502500,1.986942,88.865279,0.626279,1.492483,4.976026,14.830123,0.487020,0.631570,29.601725,0.914861,2.402984,5.361880,8.512334,3.404148,2.895558,0.625860,50.773382,5.659139,6.319333,32.342172,6.748767,12.539386};
extern double DNN_DesignLayersize[4] = {31,5,10,1};
extern double DNN_mu_output = 0.801405;
extern double DNN_sigma_output = 0.222630;
extern long DNN_FeatureNumber = 30;
