#pragma once
#include <math.h> // log2 
#include "File_FileScan.h"
#include <vector>
#include"SWM_Algo_API.h"
#include <stdio.h>
#include <string>
#include <iostream>
#include <fstream>
#include "MainHeader.h"
using namespace std;

/*
float Sigmoid(float x)
{
	return (1/(1+exp(-x)));
}
*/

void DNN_Strutcure(DNN_Net_HeartBeatClassification *DNN)
{
	/*
	float W1[150][87]={
		{-0.579892573409742,-0.384030816072608,-0.539097646345338,-0.247167101757954,-0.087920343254973,-0.423139828781879, 0.204964853474629, 0.266154009473698, 0.339069139419548, 0.525259431528931, 0.365357198597303,-0.007185300200924,-0.408172547010551,-0.488545343450522,-0.165429908531347,-0.269502289991820,-0.697962228375058,-0.442298722671551,-0.147251108971225,-0.313346758924393,-0.752002830173039,-0.644469241684624,-0.298844500354411,-0.627623109926517,-0.030373677341582, 0.056348547684910,-0.183342019932441, 0.164205573116087, 0.062732317602807, 0.070427377573791, 0.029529304023651, 0.107328042365262,-0.105772533622631,-0.012292172564892, 0.194465308202616, 0.662821127772168, 0.325489091102716, 0.274523194205600, 0.551604212509643, 0.575013008358035,-0.081598235336008, 0.307369399406780, 0.233938928889960,-0.249107823519811,-0.173977547681994,-0.417605193715580,-0.085048934859476,-0.197141818806608, 0.025960875101285, 0.573356458990062,-0.225380681852432, 0.009450240573898,-0.045154603102473,-0.090074209338832,-0.302803134393375,-0.012296230289755, 0.088391225105206,-0.366832582417049,-0.073982718279092,-0.035385082238789,-0.028126301851149,-0.223566780823149, 0.192038838304580, 0.583779161852790, 0.303585182805556,-0.031212794901572, 0.179006897744167,-0.184779742628155, 0.041867932306290,-0.508496355133298,-0.106838591317672,-0.474465610734582,-0.226597785473390,-0.351320479828595,-0.270895875553517,-0.107275830552365,-0.422370680566149,-0.018746311526360,-0.416003166187648,-0.368359151151134,-1.458702625608092, 0.523810817973904, 0.050022734501588, 0.122926259770368,-0.255794679297527,-0.217676941816416,-0.067237800860785}, 
		{ 0.161499478138507, 0.095035939943953, 0.011629687125427,-0.061891024930894, 0.078842540288079,-0.089290930477257,-0.014728454831447,-0.371022792194632,-0.313375119313733,-0.091321674216978,-0.104496764557724,-0.452373683921827,-0.626667107618859,-0.593053435128879,-0.451790279855657,-0.270307203400135,-0.975936620022798,-0.832146749303414,-0.500454378091230,-0.466081046779499,-0.433440498362347,-0.565822670509794,-0.375511566721812,-0.236514041835660,-0.085419256353396,-0.370499573501136,-0.082055748412498, 0.671201795817902, 0.207371098121136, 0.182809166469226, 0.164835251256125,-0.153579721157704, 0.134871243346766, 0.567016819875449, 0.496528068121298, 0.212335964333853,-0.227830080703009, 0.178720222837190, 0.138728561642172, 0.213509151349375, 0.372263778591796, 0.422309959284818, 0.461050425110285, 0.246515842146664, 0.011646141330169, 0.168801497154263,-0.249074051447302,-0.260891328778580,-0.150362490642300,-0.295505536319799,-0.448492612109097,-0.147105608241558, 0.685173289645175,-0.374358637673755, 0.268496143796310, 0.299200884170632,-0.131881872235469,-0.434073750194122,-0.213474739306137,-0.010611110093913,-0.149516052000209,-0.233873283781405, 0.116175739542835,-0.067098084884479,-0.122639634748910, 0.283206316378066,-0.200537960223584, 0.026636206537544,-0.113266418444099, 0.165929919107073,-0.294409747120332, 0.183527877445828,-0.280954758349624, 0.051393125511743,-0.139716594058554,-0.057529907007042,-0.266889544092482, 0.139137593899537,-0.064033190463158, 0.227405631340977,-0.405113255266477,-0.446721871512960, 0.007479270384210, 0.115608625006914,-0.077708402426527, 0.086703083526836,-0.137904492571150}, 
		{-0.357364044577087,-0.471243867039983,-0.404975999066665,-0.541193045759059,-0.627767622397259,-0.428116365854246,-0.305726099139647,-0.244788699088643, 0.078069273696041,-0.067677143851179,-0.105009201496206,-0.361293718820301,-0.105069096116297,-0.435767598535306,-0.407745506111745,-0.176654023107008,-0.176798850856680,-0.107185902912243,-0.178677677726530, 0.046569568954296, 0.589263325765897, 0.757197381668650, 0.121836270348702,-0.190855441768358,-0.082648773704371,-0.101943473438711,-0.041415772113839, 0.202626145268389,-0.229518123165898,-0.192540691192057,-0.005382722345067,-0.261054843503595,-0.305227561852486,-0.194341965739504,-0.145727877951765,-0.315598976157543,-0.285763076468712,-0.029613516007656, 0.111403855559327, 0.192973285612364, 0.279603606101859, 0.296089625323132, 0.472698359243037, 0.430626766170672, 0.360164584687136, 0.186867206989916, 0.237538776698159,-0.092373811816096,-0.499045665652887,-0.802488184281512,-0.239698925500731, 0.051035074994555, 0.664235144666776,-0.915509268984533,-0.580844100810435,-0.207567752244739,-0.020688913217887, 0.015090324750077, 0.148593408075822,-0.081800205039655, 0.117992874438313, 0.401350897554407, 0.120424783462766, 0.122172202598024,-0.039189540211794, 0.120376555898999,-0.055956228841587, 0.271275433384374,-0.107254729207013, 0.371814244404038, 0.087157375698404, 0.219759489117236, 0.156977745804087, 0.103958019041547, 0.172815089115962,-0.116888309541854, 0.026620765296649,-0.272065479125462,-0.446577768683171,-0.617116828613518, 0.232383503947878, 0.193020193820423, 0.098138743477982,-0.039784619730964, 0.046942956886642, 0.224840560542981,-0.430346327530370}, 
		{ 0.471227429407722, 0.151314016300667, 0.152849414661928,-0.034994422591502,-0.247414597172728, 0.203738903506270,-0.006594704258121,-0.281004026547510,-0.273942453063823,-0.178132250659968,-0.254032029001579,-0.472648264708278,-0.256205302036919,-0.389668460252575,-0.109843601537834,-0.210608049074266,-0.234807643420288,-0.312644154576128,-0.944423957230502,-0.121191105646093, 0.505542885713353, 0.408902254852374, 0.179246177422378, 0.121143240682777, 0.174143821307819, 0.105997076335074, 0.295839339921166, 0.186758441015790,-0.133065047576713,-0.444375843722657,-0.065261327433537,-0.399587214575705,-0.301390817767420, 0.069748814035881,-0.038435125087904,-0.154221477147327,-0.593965262165562,-0.524858021540790,-0.496504618041812,-0.212818407057715,-0.309670040774861,-0.184015485854437,-0.180141163158608, 0.028693403963050,-0.064744214030651, 0.265745401833268, 0.180937489817124, 0.356396503214789, 0.042059829949067,-0.275263118243521,-0.320522718097486, 0.926941516626332,-0.271792338185996,-0.390459792174002, 0.066347616830562,-0.473651491002065, 0.019854320664838,-0.201023544448110,-0.248586586342298,-0.129922844457220,-0.196410830495350,-0.190735704481612,-0.113883119877203,-0.176140079463182,-0.170862005326766, 0.058621589720826, 0.018029727451245, 0.038781814153263,-0.355937865266088,-0.085286536188171, 0.145663777164932,-0.119396653097585, 0.028682886877068, 0.284903004452748, 0.153011327021447, 0.425127619544538,-0.289001856398368, 0.262691831137052,-0.160906227690113,-0.260084460862320, 0.272224035775739, 0.232535679716704,-0.090171162231501, 0.164762398375468, 0.125032343009816,-0.185736604242694, 0.007381072735082}, 
		{-0.718465272043871,-0.310421348711930,-0.157814751789865, 0.513759555858545, 0.514500660580580, 0.680943458483989, 0.595642603150796, 0.541271497122769, 0.127640241953585,-0.301851837031860,-0.541541676909664,-0.590634751947934,-0.220581283214991,-0.174415157033619,-0.040856542352793, 0.626935411180396, 0.109246481302370,-0.492833986571537,-0.609252821350137,-0.159399839489638,-0.210741683674561, 0.237700700740211,-0.087140004148753,-0.387270587426908,-0.467778245910709, 0.476445636110899, 0.487413381017992,-0.964218346880452,-0.990011654318197,-0.727599910601050, 0.248344793725707, 0.143152808090668,-0.031685379340491, 0.053567962673060, 0.054286060427279,-0.620053537111370,-0.006808425928212, 0.242613262658347, 0.138604844264037,-0.382127316518740,-0.377693344428598,-0.539195610029248,-0.180298901756691, 0.017385170895164, 0.246474122815913,-0.142657542277476, 0.570695806014359, 0.677819043979387, 0.523565462211715, 0.611055366230803,-0.416448033876715,-0.457023795250757,-0.055557441751134,-0.199001881904060, 0.576790843335110, 0.085997728199216,-0.035736537218225, 0.489620808613401, 0.694916489433235, 0.328842097495869, 1.062692481253168, 0.666365044158747, 0.072609180051710,-0.150472292866574, 0.172188479052468, 0.254188537471148, 0.293034874739054, 0.118371995155477, 0.563641558657827,-0.008131269358335,-0.293868207705964,-0.365311025007575,-0.836282008658899, 0.197763818290646,-0.898081122302362,-0.027408293166667,-0.748815514637864,-0.427570982960612,-0.244217177160097,-0.077584295597456,-0.206686116850206,-0.727411600359469,-0.309276768719649, 0.058557396149689,-0.770049202561878,-0.239220598075570, 0.300058392290729}, 
		{ 0.311009115701274,-0.092796790076527,-0.150527773045395,-0.505843967961747,-0.343538302404019,-0.275692940196326,-0.239959768192788,-0.632125232215418,-0.700515451300296,-0.595031361867054,-0.309816037721806,-0.064203505758866, 0.311988431169834, 0.469733174549536, 0.388999056968448, 0.048648694399130,-0.246135118415461,-0.478429294232386,-0.418115178572884,-0.170844658424591, 0.224660715556016, 0.522013887758554, 0.619428116119431,-0.256933900270754,-0.151449922464548,-0.133140986486144,-0.197765048527095, 0.365066116739890,-0.257386615104217, 0.086642434839565, 0.417656225699272, 0.294093833658030, 0.391605766529348, 0.367185750190885, 0.099879198686460,-0.078224275523350,-0.150760120346764,-0.321618728536880,-0.121328767805263,-0.190239770187995,-0.077699846780436, 0.069206978158375, 0.033746435491624, 0.135530555305251,-0.319875938056208, 0.128848217736368,-0.241900924199673,-0.119256042129998, 0.087776566825583,-0.072544783186472, 0.090634934719687, 0.066996089504342,-0.656913597842278,-0.130700007075613,-0.309716079710516, 0.200270584844274,-0.140247318343552,-0.054205930373370,-0.240726453448258, 0.010071897946576,-0.017521370931259, 0.016953255171933, 0.337579890096783, 0.061239911724105, 0.336852241930010,-0.042809493623034, 0.106909605059233, 0.241728102793929, 0.213616401049108, 0.059103453146197, 0.002012204724816, 0.072819267535087,-0.409639165576525,-0.125295878259865, 0.041940551730331,-0.372486994632708,-0.076045381669141,-0.046754703995301,-0.563160325719651,-0.444842907393341, 0.021546540393112, 0.620050125855011,-0.164183418704897,-0.109246142934078,-0.621444249534795, 0.342002616298632,-0.264967797821975}, 
		{-0.301052824766987,-0.364616756785290,-0.109825652030750,-0.075965728509175,-0.287779405083707, 0.167061552496584,-0.064229822043882,-0.166057429205884, 0.054051099552072,-0.392652296861679,-0.406827919149237,-0.330896460327078,-0.397789072874944,-0.773065654815617,-0.204726396197710,-0.167472598566378,-0.469651254878160,-0.692530376058132,-0.338110180705211,-0.356396172084724,-0.064804184453383, 0.093286875682217, 0.251222939144677, 0.388474335307187, 0.265982211653159, 0.306760944357583, 0.305069088142925,-0.223927593219496,-0.770202364311118,-0.330891662203054, 0.280442521875222, 0.332913909969907, 0.481859344089451, 0.424628935433425,-0.059739855040359,-0.384054942311670,-0.458050747900448,-0.232027060415153,-0.330437992389348,-0.644512550385906,-0.348489527971594,-0.287847504035039,-0.204875128315828, 0.012164786151840, 0.194212657497794,-0.103542254046850, 0.002100118686242, 0.004532722887769,-0.011623906482039,-0.045845395379464,-0.057059052380751,-0.090136096517238,-0.317766565864657,-0.807233967020380, 0.103078969557325, 0.098136077796127, 0.009258835172432, 0.289017026144633, 0.280713252607131, 0.130576365729009, 0.189855230338655,-0.007493959071863,-0.007636793195601,-0.569165700560601,-0.046568907607687,-0.012689847178272,-0.111856722474511,-0.186559680645262,-0.372680046613733,-0.137180047099880,-0.064305788708705, 0.019086152962817, 0.282955421788803, 0.081873111715576,-0.260977075795420,-0.413013405486860, 0.042514662762866, 0.004888930894427,-0.326735666435280,-0.548229204891674, 2.262447449883756,-0.009028781783470,-0.415617720145975,-0.067723937765760,-0.278969699920559,-0.020326605268042, 1.033340109944281}, 
		{ 0.616895255314849, 0.378462218623048,-0.221714130462412,-0.522679017803688,-0.248249932890600,-0.409656331088933,-0.365374144062019, 0.049100805307388, 0.056912561115721, 0.203151867277238,-0.086413356878871,-0.229972729808858,-0.144728641021554,-0.219307633830254, 0.196988430538381,-0.007779791714684,-0.080308182809885,-0.355389810515261,-0.548304740734435,-0.080793883210387,-0.028780959296096, 0.160745558806830, 0.287056737350753, 0.201884403909415,-0.116856940412708,-0.220017868926719, 0.082632647021802,-0.309671764309207,-0.475203842897403,-0.486858991520380,-0.425238530951660,-0.569015578482342,-0.385387407947775,-0.601680650304937,-0.617907909951217,-0.377042458405558,-0.580175972182378,-0.190355552102230, 0.097047500914087, 0.184182870231578, 0.242578264653117, 0.265340302672861, 0.401840214633601, 0.469061199558328, 0.496114219547138, 0.483039713833654, 0.577717633549931, 0.297817776867797, 0.324068361894976, 0.370684950898849,-0.277136118821877, 0.343781196213255,-0.213164345361654,-0.259809404446283,-0.338141017291801, 0.197430269661163,-0.201583479210135, 0.083244807621276,-0.020529576558497,-0.128943613521610,-0.109663306389456,-0.238884464487739,-0.244605297910772,-0.144133652007176,-0.075395106937377,-0.038065073199786, 0.192671661582582,-0.028433897497441, 0.396335135126574, 0.398529087542859, 0.157938257736192, 0.238653528311550, 0.078441830574258, 0.197809687939385, 0.016422416544083,-0.377236664523116, 0.031046797613211,-0.065138307057066,-0.723744825199438,-0.705573707031010,-1.234715297587211, 0.060141302225782,-0.607686840256538,-0.554308966745701,-0.591527854769384, 0.707523206206604,-0.093222225413424}, 
		{-1.103420736139564,-0.706936684366630,-0.153306668923523, 0.092390130667175,-0.023492967720967, 0.076995127314162,-0.149355431949125, 0.401692436388687, 0.784922189385700, 0.108491172272707, 0.523778114653271, 0.647360009299163, 0.171407867814980, 0.048541207479853,-0.086444853272919,-0.348518252708093,-0.702176438623009,-0.276544389750450,-0.244995682996698, 0.243011455894726, 0.673081197873678, 0.334042295762440,-0.026827405233171, 0.363248610619289, 0.124603458034375, 0.538801323872303, 0.220202314620639,-0.557753439030084,-0.615243804714625,-0.620345726375715, 0.072977245752908, 0.287400603066220, 0.294739031231427,-0.016784209617836, 0.468927616065543, 0.228660083022519, 0.426653736153582, 0.305042971851599,-0.135484428844514,-0.731602495734191,-0.625205768632198,-0.609116082036154,-0.470372855729219,-0.337222752129347,-0.242202727043532,-0.610401149111862,-0.292665070566500,-0.170942149090408, 0.067942978938831, 0.285996289230530,-0.677212389225949, 0.015547419677085,-0.067528366972675, 0.455082771571928,-0.066066807682198, 0.489370744893470, 0.206186328849438, 0.247747985192475, 0.445609984557838,-0.050238848057401,-0.076227734765774,-0.479539016288566,-0.197473607518561,-0.188816086463588, 0.201468846903164, 0.379475333014690, 0.501960005126143, 0.337414041404920, 0.382985602537271, 0.067699667222109, 0.258783076082801,-0.441119987137507, 0.232964419170773, 0.052767687459476,-0.206818645235634, 0.185741867490221,-0.305000382786529,-0.083895958613688,-0.141986969190649, 0.221526053901896,-0.666320418354934, 0.001744458383243, 0.010108251552747, 0.093467237848681,-0.539571439364911, 0.057591211816483, 0.831206202007726}, 
		{-0.490587539897638,-0.394257238090813, 0.142218286587255, 0.096742989338572, 0.247671003396852,-0.274612991525204,-0.183864142070427,-0.441047664521769,-0.457434765510028,-0.475892754698291,-0.202108884384925,-0.223305322919954,-0.490703435680379,-0.296569973664704,-0.519549190956320,-0.729811525082043, 0.015259151793138,-0.075389640580981, 0.197264831578987, 0.766755628648379, 0.506472665440955, 0.787520942410694, 0.600688295387933, 0.304318001804931,-0.402547643849016,-0.224452899439009,-0.244523323892557,-0.117506567939306, 0.912676338143498, 0.647246352631634, 0.323147306620674, 0.595076845276196, 0.082610803692333,-0.318686194486276,-0.184450724855951,-0.344435091644073,-0.585706798982018,-0.518337388180409,-0.538651552227796,-0.569223502713638,-0.320134855706837,-0.339471752171712, 0.120105723133591,-0.183828529101685, 0.026817283770884,-0.001806375420626,-0.100846823321560,-0.277120284165244,-0.747874794492544,-0.409343384691629, 0.883278102945118,-0.231759979563993, 0.712663560598485,-0.568493236053578,-0.913263251779720,-1.520216509680942,-0.926870945012851,-0.478700352457767, 0.073963505850054, 0.145470105650035, 0.011453292808994,-0.029098072766252,-0.182507730181422,-0.357170957654981, 0.084393553208957,-0.113302461119152, 0.263579291656570,-0.119943021285455, 0.723524591509123,-0.350135263446825, 0.520277401252527,-0.051522751343386, 0.285719584042521,-0.094292899056905, 0.204826530107517,-0.361021522816772, 0.333879759297747, 0.312753752572232, 0.211846291918670,-0.222271514976693, 0.618522869501715, 0.260126903269234, 0.110576380526564,-0.218855064729876, 0.244041694893753,-0.582918344543067, 0.385158578184870}, 
		{ 0.161243745724924, 0.193987208142195, 0.161248448652340,-0.022162887650866,-0.287062595937064,-0.007654533448463,-0.235383212015766, 0.158143237841102, 0.084382490451452,-0.142626537622573,-0.090791218233970,-0.012124387339473,-0.380993911659001, 0.069283449476431, 0.632894984425077, 0.476199740141013, 0.218390663258398,-0.470359735325859,-0.290489326350046, 0.703129194716126, 0.809495854328817, 0.260474320572761,-0.171880393012543,-0.659831543793694,-0.601315869548839,-0.706754858981178,-0.152346370330324, 0.180337776872788,-0.912961012679075,-0.886430972462559, 0.093716516677909,-0.021922202083593, 0.424184796449201, 0.926200314952366, 0.371361547679142,-0.393807839790677,-0.045511596445023,-0.021034531965146,-0.085899687262041, 0.103332527897058, 0.057599181047625, 0.163796049908591, 0.336036227366606, 0.247513141826844, 0.094910078013580, 0.483180977619060, 0.177566719872850, 0.281792555129262, 0.096828556291905, 0.147723899289231, 0.808577168819570,-0.462673702662045,-0.652561334203091,-0.921313925332520,-0.018829829809727, 0.381014784478302, 0.084346568988638,-0.247132032327828, 0.259411272688965,-0.261052025050756, 0.162738908190049,-0.046405270032702,-0.048995551626768,-0.303044202842646,-0.105008516757782,-0.211178649819102,-0.154292601367273,-0.121631713548355,-0.387366573868683,-0.231472732231595, 0.068067203392402, 0.040405549364793, 0.221259844142316,-0.221100022744831,-0.022861600166421,-0.260911805277419, 0.484828776070431, 0.071809725491559,-0.562523496993617,-1.119359520053576, 0.402709092298577, 0.432765680151539,-0.755504798748510,-0.419132615960407,-0.828087886910379,-0.139715387700183,-0.084558377620811}, 
		{ 0.336099138975235, 0.067357350631905, 0.098348581239295, 0.042452057456511,-0.074038620070611,-0.184766357030634,-0.216438362507404,-0.150297277380219,-0.408181578779996,-0.561051840434571,-0.272106895984903,-0.201476502735054,-0.845896153499886,-0.597137688772451,-0.319025302753616,-0.572900196604591,-0.570095893784154,-0.177448388557689, 0.062618084326906, 0.360509447950732, 0.277730456589059,-0.582963311101305,-0.467773941490123,-0.013781718711695, 0.299076647509982, 0.125796757571084,-0.145936049526729, 0.201461133217462, 0.042730624760961,-0.042885813084733,-0.172310266548912,-0.271191276498611,-0.156748794926635,-0.378805807920566,-0.105479641955885,-0.106441166482561, 0.300271104413015, 0.389259172542319, 0.279253985459807, 0.241179847176602, 0.382719276264214, 0.330859210281353, 0.394435426562584, 0.053412277845580,-0.025641257742594,-0.135232393970004,-0.307015380716932,-0.300633586465933,-0.113093230367913, 0.180249431218403,-0.025272886026328,-0.372356369409458, 0.103471509894947,-0.224754035186519,-0.204422097035957, 0.423530392634184,-0.119253398164796,-0.004079225431701, 0.084621242689088, 0.057180377880873,-0.080473993749679,-0.042283930418590, 0.105319844389631,-0.105260702457022,-0.109781056415942,-0.214744759500906,-0.118064487113353,-0.136263062680755, 0.349063398398454,-0.179854296893861,-0.052715005256241,-0.253045805032177, 0.105170938338530,-0.213339174457601, 0.259056687992001,-0.368548184165750, 0.033291846914365,-0.231975112713249, 0.123156882382812, 0.229888815055954, 0.752377084981851, 0.299507515123811, 0.118761694646535, 0.383002342906359, 0.017553861078603, 0.262952629916958, 0.163352406897862}, 
		{ 0.117034979905244, 0.035227728638395,-0.038913080643748,-0.141896917621166, 0.026713497938376, 0.010349513456490,-0.060540522262145, 0.203162904630774,-0.011357049183819,-0.296762788650893,-0.198959138766879,-0.039839178799001,-0.380561282641606,-0.277522410929223,-0.062679241568108, 0.019634574946321,-0.315463688321749,-0.464566076167755,-0.304165969051975, 0.226182094103036, 0.064634571136192, 0.009483201739932,-0.201449768756980,-0.326434250210918,-0.254250218040917,-0.558783049792270,-0.559511810917201, 0.151928146209137,-0.068670851132700,-0.327994308386432,-0.120565749498296, 0.420096144334290, 0.385861705653434, 0.248210041872200, 0.205232142707426, 0.459527193926771, 0.180032815760089, 0.318260756302171, 0.367636402876541, 0.164902578742394, 0.171912342905439, 0.154459978190836, 0.244298503175969,-0.041597723943399,-0.117580613908305,-0.030159811094293, 0.168755397579187,-0.012929660087289, 0.196142919585023, 0.268795401201181, 0.007343651121543,-0.070251648345463,-0.626214541640792,-0.003080875713299,-0.045612327506045, 0.103827898125097,-0.008387745496973, 0.129255039858718,-0.013473478013190,-0.186457809759733,-0.288985090303266,-0.325102793791758,-0.101431710384827, 0.068265649177016,-0.089371012699600, 0.184376403272479,-0.113848139198813,-0.238066557878623,-0.209467074423902,-0.457000785360046,-0.310381576426269,-0.186574873471911,-0.268825187713928,-0.137169101146677, 0.011559085622306,-0.132644975013056,-0.039935031159852,-0.096412533964001,-0.570025808825532,-0.472355657503372,-0.589321913385308, 1.546703002707393,-0.250453588584739,-0.556900753750454,-0.001214563570806, 0.065080517029327,-0.154376756638739}, 
		{-0.261138532453650,-0.002261730937112, 0.068584830841044,-0.122390700735587,-0.232650081495916,-0.086689753849987,-0.192214384136532, 0.179904927451028, 0.327825859023479, 0.465561931303016,-0.007033237782103, 0.145502583528079,-0.101203696509600,-0.162652698503540,-0.271143562795714,-0.265890217521574,-0.220244587753415,-0.337461283219498,-0.166708034923906,-0.281587369899344, 0.404056144828247, 0.379441331406458, 0.040952393465601,-0.383459809621190,-0.521444583537680,-0.546628187005598, 0.019241943115128,-0.112981072841647, 0.558713003144002, 0.404277721068209, 0.683250568205827, 0.404177102283046,-0.186009801560243,-0.231681265870200,-0.217423979652313,-0.139630461809834, 0.083211293436165, 0.103133477041395, 0.162544757157384, 0.020831383509229, 0.040739710488853,-0.101537018159515,-0.187163183558123,-0.135066162555557,-0.193350523646417, 0.052609152153866, 0.316269958097943, 0.188437850117353, 0.084454039964329,-0.228751317551086, 0.152815668616839, 0.156383355797640, 0.357518840964506,-0.030043648756637,-0.745254687088540,-0.978320257998055,-0.330647030691331,-0.304929661831496,-0.098519483016959,-0.211938783275127, 0.280719394902337, 0.094860372384295,-0.107121857980420,-0.554579671777704,-0.549702014620169,-0.295957008477404,-0.039923356437173,-0.407445480534935,-0.126820590246589,-0.206392631791568,-0.136365961028909,-0.125224580722223, 0.468957977480419, 0.059355949851760, 0.256024662299418,-0.255904067809724, 0.345493179965166, 0.384344978796873, 0.009361949993249,-0.625262347709491, 0.324109240499449, 0.831312907462760,-0.345803826556747,-0.382958571909111,-0.461363169775996,-0.447224826319568,-0.504292265858310}, 
		{-0.461932337902258,-0.230979046571694,-0.321541332240443,-0.145992280194153, 0.172725310993593,-0.095390028727813,-0.330993487730668, 0.149370444739950, 0.092125197875330, 0.110776482214125,-0.233339176511431,-0.129065429552980,-0.279683926013330,-0.117877318596294,-0.134656153425457,-0.064958202698843, 0.161211016772641,-0.206542425501589,-0.338317889254940,-0.741337139876044, 0.589853503454341,-0.014702764841235,-0.979415749418792,-0.351841773657443, 0.442310912007767, 0.392936937053059,-0.346912543666492,-0.413785797388708,-0.233170462341306, 0.107517029867698,-0.229636318787676,-0.533924835828740,-0.045864025430913, 0.261857854680850,-0.174208197561115,-0.492043779974601,-0.596771046575029,-0.512872931673113,-0.832540547220365,-0.480678955822756,-0.092190593259482,-0.236027499413376,-0.143845544178132, 0.280684932241115, 0.380200894494955, 0.604408528781246, 0.533158447071794, 0.709226066814762, 0.169816804854985, 0.510158890027449,-0.264145157734164, 0.213400381913007,-0.146662378637364,-0.891601879908653,-0.037484728450669,-0.534851501255804,-0.024535645689166,-0.002762500165307, 0.367136182792564, 0.645326038675730, 0.397570495483497, 0.519816038664338, 0.019315214319318,-0.215328296055869,-0.255277867642896, 0.050103228911219, 0.277861366296748, 0.139501336972663, 0.387966322459882,-0.213121249877016, 0.284681286679074, 0.102896443680256,-0.036103290485553, 0.099112018067440, 0.501718334378619,-0.479768694760651, 0.008346611642950,-0.297372946475017, 0.112299418135814, 0.096295002664403,-0.490877177060555, 0.947925064692206, 0.164402442291620, 0.477981496891778,-0.463118976965032, 0.086500399033645,-0.084839778625816}, 
		{-0.657873141950495,-0.018452392948851, 0.107712294241856, 0.380737052753745, 0.144822465229061, 0.026088384736619, 0.032876762625711,-0.386705496826398,-0.524007388512203,-0.531852813372722,-0.324803762722179,-0.267018071542309,-0.275423493533312, 0.508395314284024, 0.152198165459334, 0.034215960320636, 0.048860111818306, 0.085526133769155, 0.010746687590990,-0.412261775941353,-0.049769424385215,-0.605517578726311, 0.275054719769965, 0.402536500137320,-0.086512670584645, 0.134194116405733, 0.436389095240737,-1.076051607229570,-0.213227910301366, 0.051940414242355,-0.099596809475577,-0.068752704149041,-0.286647880086155,-0.193584657861525,-0.111847041979577,-0.208749448975812,-0.263997741427418,-0.385482527763673,-0.284769812147053,-0.055707411917758, 0.053887285109199, 0.193662274659619, 0.191955816598782,-0.037082350209732,-0.088169243566809,-0.154341744188540, 0.068742956435805,-0.114338851325326,-0.011222507532152, 0.230123294902548,-0.000287293576208, 0.265286748155442,-0.455092182422867,-0.290512325037056,-0.284820694218189,-0.322391224525052, 0.504118996830475, 0.022309437086436, 0.086404298476720,-0.162086705058278,-0.454092902527987, 0.149510861755870,-0.076094998454400,-0.396441328126125,-0.115893710083112,-0.210380732154290,-0.095988317562240, 0.200138375133242, 0.021771593235480,-0.311377592626001,-0.028034698031568, 0.121457907004797,-0.185085039636131, 0.077951982911994,-0.466331553625129,-0.087162295327625,-0.300490275033440,-0.038928440993485, 0.129320276586666, 0.284249667014818,-2.836198021734192, 0.458714038226820,-0.066368879812236, 0.046826823900561, 0.831711965755138,-0.156909254209683,-1.008943266852794}, 
		{ 0.372857045510160,-0.067863540442930,-0.067887710236826, 0.065703766750463,-0.452621046817668,-0.226128852290114,-0.554605982089366,-0.569705967915256,-0.171218327375468,-0.137166703038916, 0.316177490405692, 0.501227444771827, 0.561946499690676, 0.174962191544666,-0.079245555012850,-0.494194741374610,-0.442773161656610,-0.398808390850626,-0.071536595978879, 0.139551812229486, 0.044031301060298,-0.539138206059788,-0.475576688462163,-0.181446537584979, 0.554898118731959, 0.598406442849315, 0.307241229917838,-0.543371146522619,-0.187624324609783,-0.204987647566501,-0.075821248261700,-0.279112428762943,-0.078517173303779, 0.215462129361386,-0.139817758999810,-0.381183963896847, 0.026091825388894,-0.036093394356651, 0.053366501918007,-0.269199152387687,-0.155157693922455,-0.359681224325037,-0.264435794584545,-0.255569816889099,-0.272805151144289,-0.001376511642939, 0.037270940870214,-0.047808763225358,-0.090648530021908,-0.248055266116620, 0.076686836925864,-0.364701408364869,-0.469032426601191,-0.032375379170311,-0.394058606628544,-0.771105919871154, 0.541632754621557, 0.072643447527622, 0.023616088926887, 0.054746782921800, 0.263159055827964, 0.517767691389240, 0.043532440546385, 0.265923701362210,-0.286824867318001, 0.190438380610539,-0.286390473454742,-0.057441818865357,-0.014181714287358, 0.113228718663185, 0.036564197055733,-0.070733547994111, 0.286423945538432, 0.129063253919923,-0.344379678510009,-0.626112218947944, 0.269397227851910,-0.265260815891718,-0.043134101670998,-0.264268479427062,-0.299784013605652,-0.072672739923977, 0.255773923627903, 0.396354242584115,-0.563171068806922,-0.523200870717859,-0.767535909284797}, 
		{ 0.309257076352384, 0.089625308193226, 0.241481245596438, 0.104633405050585, 0.178237230258553, 0.335901496651848, 0.063136068611870,-0.181986473667987,-0.663537878111742,-0.056363029036039, 0.227182153838187, 0.190088178435064, 0.263750676606994, 0.455585022432318, 0.006946714578922,-0.387154700189035,-0.625118483242396,-0.473459614202336,-0.599452132827803,-0.212979410445718,-0.400690400598806,-0.588854526382399,-0.165081231312760,-0.584431316036182,-0.473762520361879,-0.402290239769344,-0.227781321245546, 0.502875517242951, 0.158548956527589, 0.060925266108384, 0.243104266136569,-0.184611461460565,-0.582123479203399,-0.075024153736549,-0.171051139763392, 0.051233964622984, 0.317437145219180, 0.305336917554006, 0.551723469616961, 0.746087973867181, 0.566172458241836, 0.290294979808410, 0.173826890802495, 0.384288742117191, 0.081013170709014, 0.348299780019902, 0.192908747575660,-0.315880556395376,-0.299958002242033,-0.684941135445204,-0.004114108892549,-0.585119845355213, 0.861761898153845,-0.121715761328923,-0.089360294984617,-0.319620319241809, 0.260611860043998, 0.116402572914410,-0.197813492994297,-0.034031243902505, 0.106533803115607,-0.246491122487737,-0.082966584759334,-0.043068671899133,-0.278037162910925, 0.079384949513899,-0.339296928918380, 0.057957141179466,-0.473661683096403, 0.090499635677482,-0.966635487303491,-0.363141755998034,-0.535687277399519,-0.308410869257361, 0.117503074271316, 0.366563622821809,-0.218530301156009,-0.092162949405135, 0.371386823281682, 0.318743571808776, 0.859161573894009,-0.917977173654710, 0.273973374491566,-0.046654570061553, 0.175598388415713,-0.249570883511354,-0.202725403331653}, 
		{-0.295802726420650,-0.233703972264035,-0.043869632929254,-0.081410441933437,-0.039081278284991,-0.228424361290167,-0.019418247234920, 0.064872664120901, 0.007295067362981,-0.113970312903744, 0.174710348468121,-0.239421297197954,-0.594967961861836,-0.560707876480119,-0.528729738755369,-0.777966744917744,-0.681890161127652,-0.489419180438590,-0.198032798882919, 0.051311450894630, 0.219876261102132,-0.234218777662394, 0.104764630934979, 0.203957299863059, 0.262822705826948, 0.336910561913703,-0.145268589532121,-0.006417490458326,-0.052693062007641, 0.282367316749244, 0.015277584423445,-0.284716386268612,-0.022529635686962, 0.102574165863755,-0.071350867703901, 0.054170131190742, 0.095926317962107,-0.250992605880940,-0.222422939724327,-0.302106778315081,-0.231802307747049,-0.127938231756224, 0.038975666172545, 0.042761093522623,-0.107149863234380,-0.276182431603330,-0.226605841878926,-0.108313751143925,-0.053844901550774, 0.367915632130770,-0.426476556287370, 0.227607706522061,-0.021906972953711,-0.112503825453285,-0.457094948147614, 0.099227927209150,-0.137945762482189,-0.051409169515653, 0.238818306225087, 0.256205412212071, 0.059785783873699,-0.017519025993695, 0.272229726901368, 0.083019576626126,-0.260372895639129,-0.163051075662154, 0.147336803500892,-0.090232887064073, 0.023705974519292,-0.255057238490080, 0.371843331518385,-0.200035366052685,-0.001945432132397,-0.235251508671425, 0.203568441165987, 0.016899118611561,-0.226925265642686,-0.333175877824816, 0.083005260872818, 0.058815284989188, 0.517116724107206, 0.488665849882894, 0.213755442802564, 0.428137929762154, 0.514056063841572,-0.609617406704626, 0.118531954816593}, 
		{ 0.322655146654850, 0.072702039247699,-0.059992244886137,-0.052978717632083, 0.028822314293299, 0.007967816731837,-0.125474843051707, 0.239903522699149, 0.387718758961312, 0.221721716984387, 0.069387797280973, 0.128117657884307, 0.193100947986398, 0.043615620662777,-0.125226482730166,-0.058241425439847, 0.164376801489198, 0.221887064849330,-0.368783305753161,-0.426131893863442,-0.610661951821022, 0.275301403738430, 0.692342156288650, 0.151902505951762,-0.624887956973193,-0.280566579821156,-0.139901465854491,-0.112678290550314,-0.166724823170377,-0.400815801295371,-0.082060763089289, 0.193953061137958, 0.102764066789525,-0.053461149971573, 0.401000666163262, 0.330992587783599, 0.264451976326073, 0.013159350765337, 0.320709210482975, 0.113593974628499, 0.038549945204861, 0.383832721228686, 0.177094061905697,-0.036417192768310,-0.000967623895761,-0.266220654935462,-0.206822008752291,-0.130405114237856,-0.145397099852854, 0.182180904780352,-0.193845140694108,-0.220796299263754, 0.249602226274380, 0.416952912941505, 0.049481888605696, 0.555555666016688,-0.232401137782642,-0.341241662724734,-0.336794682004866,-0.495828778326451,-0.381980526250010,-0.031224201187093,-0.268147134772373,-0.039116896053995,-0.277159125337028,-0.190608881554306,-0.289352779883384,-0.208654166082443, 0.116223606841500,-0.163825265914705,-0.070118696773067, 0.187695061323163,-0.182870602551803,-0.020995225780159, 0.463547041230707, 0.144995711627449, 0.025285850941715, 0.055023817013424,-0.241751535221173,-0.431568128277768,-1.183302441366799, 0.366168908800706,-0.287621129319511,-0.497959080973526,-0.025963328252637,-0.588552526715754,-0.739152984404727}, 
		{ 0.741953698434194, 0.654000591363220, 0.583794873737728, 0.611289559045485, 0.374698054998752, 0.264358045289991, 0.116136381965046,-0.235936730042514,-0.048582797620373,-0.233819946665821,-0.271446070357522,-0.323212131276716, 0.331481179109754, 0.240205375311646, 0.073767713576423,-0.267601511064667, 0.030499809217601, 0.128100112403642,-0.042324258814856,-0.272450223229554,-0.181470893598804, 0.170551176656624,-0.328977791511584,-0.516997939193686, 0.110482793907219, 0.024313705145145,-0.204575156045179, 0.316910290077494, 0.250109355904127, 0.366663099662561, 0.258302809490134, 0.520596964924572,-0.057188859304405,-0.339319980835796,-0.440525048588908,-0.079477277897777, 0.083514286966944,-0.062199088249453, 0.110955392918617,-0.042902950530601,-0.309868397004294,-0.316971221500758,-0.405566449347727,-0.146329588443535,-0.400240056411300,-0.373434191735085,-0.205168699046927,-0.363601201076728,-0.786704640327154,-0.877316154221605,-0.090786281184165, 0.203659878067448,-0.051505857888776,-0.271945950450372,-0.173821820256249,-0.749578269062752,-0.047817068149566, 0.033737170830077, 0.137539730530235, 0.125667718913504,-0.017384519667623,-0.002353548575566,-0.014398847994682,-0.583447303691049,-0.003393339281156,-0.224394255764365, 0.007322942156635,-0.271200598838774,-0.185308754415584, 0.146810098186077,-0.402467033584857, 0.096442472007790, 0.086018231696090, 0.168542353504994, 0.537863841195824, 0.219788404054883, 0.059674798330130, 0.089328815451292, 0.266979580745155, 0.281294848306683, 0.897386618101705,-0.010557262869367, 0.507281503425801, 0.139037138566676, 0.217391342188131,-0.429079875942479,-0.246743930453469}, 
		{-0.192087501393956,-0.006136909359580, 0.055632701011795, 0.195946156081018, 0.208825800624388,-0.427024630459586,-0.066715067779944, 0.034194597259816, 0.241151357346182, 0.148979372431124,-0.002931730227810,-0.652423159164427,-0.753814360824919,-0.576263756171406, 0.408423600908151, 0.655553997427314, 0.155148393099138, 0.201605893309497,-0.517710680322786,-0.294106985062567, 0.038266519259652, 0.194950129554365, 0.209192853455202,-0.001637466898102,-0.272082589897571,-0.006762673651825, 0.115550442873179,-0.991869880016184,-0.535660865460685, 0.298690878311624, 0.136940999876864, 0.142948926319109, 0.204090533184657, 0.019321390661392, 0.224348777898380, 0.482285264357042, 0.420895640212159, 0.253490475350831, 0.073975187897277, 0.124790592901609,-0.143959850724866,-0.055890149063507,-0.224941745226894,-0.037102697923482,-0.125985997426577, 0.125429391481719,-0.023020073180163,-0.119322169553266,-0.127969197248546,-0.272451021624202, 0.205387198021012,-0.221819875324615,-0.997191896669333,-0.362340353423083,-0.103825218097557, 0.508117608191411,-0.080117433934221,-0.063128747929945, 0.270560766712974,-0.077701247605007, 0.039201359655508, 0.383230080705185, 0.131848307767990, 0.065942389199601, 0.344000847722295, 0.312577285498598, 0.106066193056079, 0.349660109886751, 0.310326435890549,-0.213278880126911,-0.820928153929872,-0.645371354684715,-0.316107094188129,-0.318392737579948,-0.870046788770810, 0.692573612658911,-0.469126643277034,-0.209008842562325, 0.230449883739669, 0.818126086277607,-2.604325491649390, 0.927077541076427, 0.357280172287489, 0.168320196625183, 0.728121516188343,-0.685654265750844,-0.869764626938267}, 
		{ 0.217111322178984, 0.397171120233008,-0.357769456055389,-0.417511761854483, 0.056977985258124,-0.339145306250352, 0.558683648912397, 0.802215772500461, 0.509640091835582, 0.823445970430004, 1.553175239267470, 1.102449229406126, 1.422819970680470, 1.187743538536952,-0.673709572014727,-1.077867644061632,-0.853726525593308,-0.506508385574602,-0.579690554963654, 0.722572282221773, 0.883434699127047,-0.180748728850139, 0.341228455435687,-0.199742024466335,-0.313034066462926, 0.253900737698864,-0.130585945391818, 0.522667151649666, 1.461623849550601,-0.880643212311118,-2.267258377740023,-1.706732127505510,-1.113264213920690,-0.786098492537186,-0.019608888473777, 0.679231819349482, 0.361676636952081, 0.288339382628258, 0.260790497343747, 0.738628447641345,-0.197434353903861,-0.257044261625112,-0.885548893213551,-0.724171976143893,-0.703813057997271,-0.232389623791622,-0.754358717198456,-0.798127790973866,-0.456387988833222, 0.080119942213554, 0.213670104110757,-0.562038302480081, 0.122019560815491, 1.475906854088200,-0.705491350803895,-1.001109661386768, 0.314446845386452, 0.100289911152994,-0.765945134570009,-0.025950601542308,-0.623848275381544,-0.363009967161237, 0.170003067472242, 0.295267463639646, 0.762504901685180,-0.508777393381102, 0.943026024723339,-0.424573804795769, 0.485320261676566, 0.015699852556717, 0.046344944267236, 0.132347926974924,-0.221993101676350, 0.277460554374962, 0.632074618293602,-0.252820189040355, 0.087667780120382,-0.034940449988803,-0.396488165357305,-0.134747956731846, 1.080328350488624,-0.158164589537481, 0.164689114592862, 0.021644645523836, 0.935012633423043,-0.722649907796535, 0.377559465931800}, 
		{ 0.586087528538960, 0.354538028972362, 0.306266239861348,-0.096357089540901,-0.447421107347428, 0.077736279327752,-0.161927671200185,-0.425866625247601,-0.681026505302966,-0.371703245002870, 0.017134600498608,-0.189121997055915, 0.324381879327289, 0.561439438978325, 0.210980734714580,-0.161493357840291,-0.345855605704800,-0.506859899525959,-0.677967392118968,-0.160039236532817,-0.404025536825700,-1.150141281556032,-1.451266795683472,-0.357885914063482, 0.709356085651489, 0.456316761210579, 0.149101083453641, 0.562269914992242,-0.013726418784628,-0.148591130583295,-0.307754016508563,-0.364265442912516,-0.120510621748950, 0.093437625591159, 0.079846323666776,-0.134863690414892,-0.224656105402673,-0.247488295055152,-0.075353965529942,-0.119989205491652,-0.285036427770528,-0.357351077780408,-0.092164679337881,-0.270436522887013,-0.214784813681494,-0.160267284323965,-0.045402728754467,-0.026135080866567,-0.235668598163834,-0.756581584947944,-0.150794809413996,-0.226315453105583,-0.791336796374764, 0.484595962367961, 0.332997509598777, 0.302020712890176, 0.839254730607943, 0.473873503180319, 0.495935029476787, 0.036750728779582, 0.015187227369999,-0.324385820707047,-0.124673409428993,-0.648514725764845,-0.396276339502504,-0.403250302736868,-0.344605920003201, 0.209432433612625,-0.169679321031386, 0.152888599033078,-0.034676918696666, 0.385861374927928,-0.102550311126994, 0.133371408758650, 0.038412856201074, 0.610672660180231,-0.186141243064038,-0.128708952019111, 0.003683101601868, 0.182379800103451, 1.582189372563264,-0.506350658261255, 0.281436757089054, 0.774122514581635,-0.277797446153090,-1.146600215337197, 0.239215524065285}, 
		{-0.099254104834763, 0.027403012571934, 0.044275007012061, 0.277496326407109, 0.362901790783866, 0.104472269005590, 0.259503587688274, 0.350441176425996, 0.286184641032155, 0.326367755041371,-0.050289356505428,-0.323257197680871,-0.650224342788342,-0.731171749110841,-0.677383846373883,-0.644524298306976,-0.188201673820864, 0.213861958154620, 0.103184740507201, 0.309608173349638, 0.123752380184159,-0.251177510579234,-0.394605274117062,-0.119369096138501,-0.172292577792038,-0.177377859530105,-0.560039267836584,-0.080123891471681,-0.000032954665469,-0.041827137825483,-0.226574178152791,-0.332797769680578,-0.629651171987575, 0.014397399664182,-0.015297463854876, 0.412713426490539, 0.613711356311827, 0.550006159448221, 0.767277476620649, 0.750330154337702, 0.613684742884501, 0.590331289208317, 0.459227300496686, 0.211756314182817,-0.056556719382116, 0.059604935201144,-0.162896759783388, 0.010992037634906,-0.368349600777666,-0.026801832117756,-0.228683426602506, 0.058616445044616, 0.299634852948555, 0.146118791077168,-0.271351942545009, 0.267176562975608,-0.139296116647973,-0.166539328125322,-0.091445716460998,-0.188022586042930,-0.013054647267813,-0.014435854515514,-0.354110081798251,-0.213085447614281,-0.567911413654205,-0.324019460869737,-0.456513006081193,-0.209150639708700,-0.220824190434164,-0.197724193242573,-0.195530880904005, 0.036357110789211, 0.244226625977461, 0.116659226315374,-0.040520168098625, 0.120365318661893,-0.137545963398738,-0.031042087101877,-0.056827810837908,-0.078779263283310,-1.261910808605248, 0.279136249874808,-0.131758291521775,-0.185169727762917,-0.215900436452674,-0.280782736449748, 0.682501504903655}, 
		{ 0.487796032134723, 0.198374786496434, 0.367075871767539,-0.133998404072598, 0.320325764027710, 0.302088296300842, 0.295433746992290, 0.117755808289316, 0.138081648416830,-0.155316102928236,-0.496614590605345,-0.196723956904752,-0.286549519002621,-0.413233578630892,-0.029783008282887,-0.039013152861603, 0.256010018164275,-0.188836116850296,-0.382116049360815, 0.087742195916786, 0.110737626866364, 0.059251757434424,-0.041247716837352,-0.365267904661699,-0.381801657842309,-0.534814631569453,-0.445659171365335,-0.023804846158109,-0.253837510882179,-0.576221859434847, 0.019285711271192, 0.298918566044554, 0.378132483400527, 0.342906779320027, 0.269301080136882, 0.128134135595462,-0.102195356585861, 0.153590878694836, 0.064905272244067,-0.047662562854759,-0.104326171537819, 0.294626773696185, 0.438596291331489, 0.174066551001535, 0.324901515828580, 0.122183447525545, 0.471919283778875, 0.386764689592248, 0.053216907042999,-0.105626852756524,-0.082162115595055, 0.449039306710783,-0.275507598347292,-0.502841403313528,-0.070434009100066,-0.252062103384832,-0.312256819786622,-0.268212089116922,-0.201291121839128,-0.191294374994556,-0.047065532512872,-0.117885312231613,-0.081049651667908, 0.260991470308935,-0.069125627068518, 0.119071522803743,-0.011672118776367,-0.366662835477550,-0.238789180917838,-0.341699673632467, 0.304723373140562,-0.314500294830355, 0.190988334066206,-0.396317895482147, 0.110717977997967,-0.632746183228669, 0.432106358535362, 0.062875773301864,-0.419560559616720,-0.666289215184858,-0.720531088768719, 0.629073346324274,-0.207768140164153,-0.565385646356895,-0.111239713509777,-0.329128074204534,-0.246320546715082}, 
		{-1.253332981846591,-1.527561700857805,-1.062776216831232,-0.237867004703727,-0.686394412488533,-0.511092598699970,-0.385242241206489,-0.165244920946890, 0.141016209696421,-0.124069052724808,-0.101449492983357,-0.997436717059497,-0.876314500740254,-0.557191625361361, 0.042372654831873, 0.148223295797239, 0.235705639917201, 0.128611595498817, 0.459357321158648, 0.124916209687719,-0.103199799578579,-0.301699677194106,-0.325279557976808,-0.062911191674806,-0.032419088320402,-0.044685789173895, 0.441471522452759, 0.521318375177690,-0.410705990883761,-0.187041471883877, 0.105797447577150,-0.026610975395471, 0.330669079057153, 0.162054859080914,-0.374649286929998,-0.903927427745672,-0.767206714430759,-0.107534614418328,-0.419885357559819,-0.445281811068653,-0.384465236681021,-0.352688042248609, 0.116476563026232, 0.170285718747111, 0.151537916702657,-0.131426070053382, 0.608717254779178, 0.681898358032372, 0.779836755133269, 0.536917332068967, 0.137206419051241, 0.068554266430012,-0.375725326891027,-0.810779312303603,-0.264788070178587, 0.533972794614722,-0.030417007517892, 0.062070458947711, 0.564587822479234, 0.008072860606270, 0.285271963515595,-0.222761497666250,-0.125769615253389,-0.080858051013495,-0.133173743662175, 0.236252699009973,-0.612705618103386,-0.320380672352444,-0.504242334890866,-0.281967308915492,-0.461131883904264,-0.048473085032927,-0.250707324841298,-0.066958504227269, 0.116122184427506, 0.019644393807823, 0.098052019262881, 0.002405089891744, 0.056726281369237, 0.099391466274503, 1.961807417333190,-0.337346481772158, 0.012377851431522, 0.259170663667355,-0.242447813669344, 0.222657872510238,-0.326417270679400}, 
		{-0.074035403880723,-0.451986623967323,-0.366351489909237,-0.522345394413437,-0.167454593646587,-0.433363237591648,-0.233253604839385,-0.065308670411693,-0.217072969095063,-0.196912284866552,-0.330239958170077,-0.215571181796184,-0.044255121571088, 0.227215935834543, 0.186281493473011, 0.403907327893738, 0.299089912708682,-0.299470808187402,-0.707824488310173, 0.044943585949198, 0.204556133078135, 0.475732585120821, 0.070975567442957,-0.386081935391627,-0.559401795398805,-0.396561476084678,-0.106742062354248,-0.287682545069206,-0.142310080882866,-0.349416006265544, 0.236329786111094, 0.456187910327546, 0.670546964751719, 0.277542756455499, 0.459985246487320, 0.375368791655465, 0.261882920975224,-0.006459475339628,-0.025215376842470, 0.092929644737750,-0.169848568042339, 0.282752830493237, 0.179461017265067, 0.045993858009563, 0.318047552088315, 0.443247809841053, 0.433767478128672, 0.466215383796874, 0.429549456936915, 0.654605385759340, 0.429734463537146, 0.082261589868376,-1.221234171277049,-0.173657687672781,-0.122953372805676,-0.050260325531230,-0.112446550437967,-0.234706108693296,-0.146368159674330,-0.196122521770535, 0.118707864872491, 0.224772983457327, 0.051518052904428, 0.068295262673447, 0.178739195094914, 0.068005290174645, 0.062947621274809,-0.115143711618902, 0.045864388992507,-0.070275528011952,-0.130770185706114, 0.069432396975516,-0.418857860751194,-0.090094065393208,-0.508343867874629,-0.649182181517316, 0.203705118611907,-0.353795359157256,-0.981494026342768,-1.315898734601841,-0.953662383134877, 1.015626636208994,-0.477083310036273,-0.656835777441066,-0.498141558489370, 0.155753189610797, 0.346327346738740}, 
		{-0.100329273362274,-0.016685115291973, 0.202047890948400,-0.081014857209875, 0.079475189700898, 0.279216546395371,-0.053895396285850,-0.021533320713932, 0.166859931233352, 0.168891922275102,-0.100538030348082,-0.101361388206498, 0.002096091582191, 0.026199858985347,-0.140960207167830,-0.156248913001490,-0.592146018374046,-0.759916857652713,-0.719060525703031,-0.127734923015864,-0.394744562318086,-0.246293524521585,-0.230598743088622,-0.468005814164064,-0.279443759239227,-0.241393341594200,-0.123707806413500, 0.663831486315217, 0.418528138135591, 0.121205960604813,-0.060970083787143,-0.211873272029610,-0.175690386269730, 0.112678657382410, 0.073438890876206, 0.092237842234265, 0.218962844516714, 0.218790836681368, 0.513286715094099, 0.690376425558713, 0.227622054031438, 0.345992460300034, 0.342841130625181, 0.226503785608633, 0.246667922170927, 0.238687793700494, 0.026809822650646, 0.091197676724470, 0.122220878630722, 0.013705223005748,-0.124289134423712,-0.085343895222025, 0.658328991384676, 0.387295661286631, 0.058661769255386, 0.036193656289352,-0.077674210330736,-0.233779900232173,-0.511932353687169,-0.203366043420447,-0.018999497440117,-0.320583629203435,-0.042931996148591,-0.332630024760802,-0.169852065135050, 0.008517221252985, 0.006879118501492,-0.114511294774864,-0.165846237868292, 0.039583012795170,-0.294404132880859, 0.064392486366206,-0.586852551753729,-0.176028065956583,-0.010361709576983, 0.164428157163106, 0.101878181238765, 0.265466370779345,-0.011386224986238, 0.069669713311338, 0.305288916929339,-0.727146582633059, 0.099636671773575,-0.127082411205161,-0.020906704676262,-0.259010086512935,-0.316633319452533}, 
		{ 0.310271945264350, 0.479579774772660, 0.084690906141061, 0.017259878007016, 0.108588663556501, 0.022721139274402,-0.076424450748481,-0.244000133996261,-0.036358312537558, 0.061475874538921,-0.203894891841102,-0.295234056458764,-0.227012647699249,-0.308800257566439,-0.119310450666850,-0.385362553680795,-0.141559994055123, 0.223663817315722,-0.033827611905189, 0.131041337196967,-0.048775149453329,-0.268647038798147,-0.489341241283073, 0.030029234903277,-0.034679716621990,-0.059366592299505,-0.273800943683523, 0.105177701251737, 0.124851687287283, 0.118554782419216, 0.386550971353816,-0.266573741888098, 0.124300734901285, 0.401769227523269,-0.017705831903606,-0.548381383238954,-0.602227826318807,-0.373228907277586,-0.080599056175852,-0.054879591014328, 0.135536704581659, 0.303261829202660, 0.030158842962022, 0.292629566561674, 0.016109210183789,-0.080786029094769, 0.123249850239444,-0.131729065847580,-0.053761405296742,-0.209702288676388,-0.178931799486450, 0.006921608673521,-0.345216061331866,-0.466376239042684,-0.370521632822959,-0.095539979216338, 0.030069074326141,-0.191390654427700, 0.119783711219263, 0.268950142288780, 0.478676745682009, 1.010278635003784, 0.596039951087553, 0.338464220094541, 0.014760318978922, 0.418923887401376,-0.149581697091661, 0.005560296446141, 0.132918676199511, 0.323118659879118, 0.161319779556801, 0.186655765526622,-0.006685087776046,-0.061079928471408,-0.081416034133098,-0.656910879666793, 0.177248504914805,-0.307102307263036,-0.198064425024339,-0.279584224303784,-0.572393870276571,-0.151790084349161, 0.206437501774068, 0.050714031097086, 0.365722202749077,-0.303456721260789,-0.125599564630769}, 
		{ 0.270229626338308, 0.796232756259528, 0.330222011127779, 0.060840113084032, 0.183627590046603, 0.044359246247527, 0.135121059930875,-0.093777807667544,-0.058931012309713,-0.125525159985663,-0.371078426670993,-0.281420006992004,-0.469616789447775,-0.705620603772366,-0.276224325360282,-0.451806101249523,-0.275278940226371,-0.218760330272623,-0.684453972882989,-0.208302445606024,-0.126113551130786, 0.107451309250958, 0.431836552434727, 0.222320695079039,-0.176597185195774, 0.083561686715967, 0.353435440277033,-0.475360366312488,-0.696939849395135,-0.262319750327800,-0.191694465682313,-0.021082202815247, 0.117269463181660, 0.109358926950875,-0.140032643923677,-0.246599572478035,-0.351867818315041,-0.556226744300655,-0.395896381532100,-0.575526008937386,-0.484317322711826,-0.149975954245624,-0.075715076490065, 0.265381831238529, 0.261919443607383, 0.528169344978113, 0.408255019788835, 0.344486607696656, 0.591764442353414, 0.315943964889629,-0.129267525551848, 0.538265977780802,-1.041143157088454,-0.351078851826224,-0.301426648482139, 0.194555866946602,-0.078801656328147,-0.114174627877504, 0.151540621810179, 0.073117398526808, 0.005819945485589,-0.223755864372092, 0.082533291831815, 0.226684311516422, 0.290011642905280,-0.041888111476818, 0.128458100581850, 0.279447772859775, 0.305455305558662, 0.328550483318188, 0.071073896262806, 0.161224684294269,-0.250407674038108, 0.212849694650888, 0.066384407642135,-0.668100778250150, 0.272729971343999,-0.198203244174411,-0.773889368358906,-1.159311559832445,-0.719692545086476, 0.556373372169804,-0.647812047073602,-0.479015088926969,-0.578948584639919, 0.377888026653354, 0.450553519249620}, 
		{ 0.324310010584333,-0.037324495911369,-0.086208224481218,-0.323149302245966,-0.211014242513111, 0.064937479578362, 0.038231717310764,-0.202684599869811,-0.161118706281843, 0.158057003166785, 0.458813258374794, 0.182911861431318, 0.386245894144637, 0.317602763059382, 0.406220965024151,-0.434308437605400,-0.537667434745354,-0.585117603597014,-0.575068111834637,-0.007049025291748, 0.180382685317056, 0.664919076093652, 0.337649532371375,-0.698141915811485,-0.796168518378580,-0.029024184244275, 0.049835767790215,-0.194876267355094,-0.366123645156532, 0.261314906647489, 0.469844901635221,-0.047213123461380,-0.053292318299336, 0.049093612288570, 0.316949492755190,-0.014520565156916,-0.128269695372910,-0.297211569243284,-0.607516095276257,-0.599947357472900,-0.918865096177925,-0.499496918697210,-0.483001042027540,-0.211930810224863,-0.116217126219485, 0.285377277311502, 0.173881319006374, 0.620621529527873, 0.676646613407049, 0.516343106703754,-0.074024662985253, 0.126847346502112,-1.277111825321225, 0.106486383100274,-0.883380039045042,-0.867784879242011,-0.297299348784017, 0.434890299545476, 0.372805332244260, 0.521625497043848, 0.667600024100920, 0.299265667042804, 0.753803721616266, 0.397387141471570, 0.519468840076636, 0.045522268517726, 0.380236163773216, 0.042378253868056, 0.468605138661707, 0.081819077808407, 0.316029476737654,-0.145861272849057, 0.292584081494750,-0.317327709571364, 0.119572521067084, 0.096299789778361,-0.562831622447261,-0.249482307584154,-0.321583302351848,-0.193018135923656, 0.015321108868823,-0.910129481522009, 0.486805513766114, 0.477892910147967, 0.224499847659072, 0.192774101449329,-0.058493662028250}, 
		{ 0.360159581774327, 0.381286455145520, 0.156479078896398,-0.106581990808901,-0.035618573423504,-0.057771268046913,-0.165117234953787,-0.234247036484897,-0.384880049271553,-0.246957814862304,-0.374831588744081,-0.487575515088408,-0.443383472885009,-0.744670659769401,-0.810661132293435,-0.713735040586221,-0.653943571112771,-0.393791654857282,-0.619707676542259,-0.837541087252572,-0.358049106611789,-0.092220309273252,-0.262099044296173,-0.014813149608153, 0.162945563539982, 0.164311665971230,-0.301585265886005, 0.311931203410911,-0.020174516816535, 0.138632079464941, 0.155872298795177, 0.213925262609271, 0.410028886127788, 0.497367440568383, 0.378218329831769,-0.367253495835307,-0.192407786844078,-0.243838228796379,-0.083156431550646,-0.415301426893940, 0.174747975122340,-0.049515290627250,-0.122108863619789, 0.222186385962243,-0.002490813850014,-0.161191795221008,-0.021446256240860,-0.092333867472784, 0.057994698791373, 0.089633221705128,-0.401424586502360, 0.288175411142774,-0.213419941158895,-0.070808064673893,-0.405713447628759, 0.101727007053943,-0.211337627900374,-0.082437460386603,-0.285183844448902, 0.125071411414399, 0.412329772262697, 0.428069793496745, 0.152709236464414, 0.045239420626380,-0.150436923171248, 0.060925133812793,-0.100459395664757, 0.378863490555904, 0.106083570749342, 0.254816313811100, 0.205581849218902,-0.114997289455822,-0.247232820925658, 0.473609147206036,-0.304728084262612,-0.107824583124150,-0.016680699922687,-0.250980100239137,-0.171319543300888, 0.064982978424935, 0.456710929448690, 0.325111505540726,-0.259098247119439,-0.019160508324589, 0.044850759827791,-0.035218958461835, 0.255904484284130}, 
		{-0.207351066303172,-0.215057986296795,-0.226610452452513,-0.270369233639924,-0.255487582792756,-0.093631241951379,-0.091358005857583, 0.176947224656072,-0.045391008479318,-0.100344257711740, 0.009424819989446,-0.014319540864132,-0.222319138622608,-0.010548531182659,-0.098341395073502, 0.009640753598161,-0.317415015132928,-0.412132525087817,-0.515884175124242,-0.113981633100016,-0.242611694623001,-0.088650170561949, 0.125908395399045,-0.261050859165037,-0.397989438815934,-0.392999637347745,-0.375034898656677, 0.046695043363121, 0.077430056650474,-0.294960723682913,-0.137677451300899, 0.063676980035550, 0.261797230932571,-0.207316191136011, 0.198168177572171, 0.197297337691663, 0.208603900805794, 0.136644193323740, 0.278679936798936, 0.000417576352438, 0.136792178913424, 0.018517245746579, 0.064008139831363, 0.125196301273243, 0.284435975530971, 0.064685992444894, 0.180739444960681, 0.256205824158033, 0.230680213202950, 0.199684746918754, 0.085657052274393,-0.064082963803446,-0.390277647951870, 0.091737318635444,-0.242272316317901,-0.210898604988644,-0.180809013991602,-0.152047440462946,-0.290404482904914,-0.257461198338688,-0.123208055725154,-0.079481419222990, 0.242413607038339, 0.247643168922808, 0.113281813994541, 0.074343638643468, 0.055023356458022, 0.017039467954834, 0.079260167328793,-0.039535180919264,-0.081451225345115, 0.146530667863783,-0.087243933973282, 0.015303793276303,-0.081193498462964,-0.342272352259369, 0.121682347984644,-0.019651009744270,-0.409315845223063,-0.502755620317525,-0.659527418918873, 0.515704338690818,-0.197413317277611,-0.391320240622615,-0.446440306742175,-0.121998260495685,-0.121015754216209}, 
		{-0.124610465599539, 0.261689946943548, 0.234180948180868,-0.040889888789481, 0.067435044492241, 0.249329687452387, 0.051190743973186,-0.021139737961510, 0.170838374639369, 0.059433606785523, 0.106181474288106, 0.041981754573214, 0.221633732958502, 0.382307947047292, 0.162148264624387, 0.125137614068628, 0.208842962319540, 0.076073364933144,-0.039598293431604, 0.243418866380392, 0.511938918851395, 0.279817624123661,-0.020821973579560,-0.240454322844465,-0.249398467035080,-0.030408040894855, 0.275520216518523,-0.653724287490214,-0.391377935677386, 0.195804489219542, 0.125421440425227, 0.123664551264382,-0.032659111242865,-0.377381956849704,-0.253337739300570, 0.105382966676604,-0.347169371025775,-0.141695887529745,-0.370376964734473,-0.391804424033352,-0.520518781675000,-0.104296437275019,-0.406167064645018,-0.337489857486773,-0.107360990875788,-0.367151756161311, 0.216589574134918, 0.090627742823840, 0.259517351178113, 0.542357485156802,-0.043773095785112, 0.157175723298930,-0.849220318838875, 0.140120012114078,-0.240307281192099,-0.188802419015973,-0.033271440440239, 0.370922433864092, 0.019661049430211,-0.343103524052038,-0.286322759636981,-0.217226346437831,-0.341005214965374,-0.284201395265282, 0.001026458112512,-0.146770442904634, 0.018238311732559,-0.148373100826165, 0.037150089923959,-0.181928025018138,-0.020624737101895, 0.228534664668886,-0.235707437310167, 0.513620025335186,-0.581550926205765, 0.253974596657100,-0.061652621684764, 0.050712444796677,-0.204538977285558,-0.200449345361163,-2.055153316044591, 0.566642815714210,-0.130006927504051, 0.008797209111405,-0.207051442416465, 0.173824928480263,-0.354380143610342}, 
		{-0.639719709580663,-0.737072265887297,-0.380204636135630,-0.113404836467111,-0.089188062081424,-0.035674963225190, 0.383292123489875, 0.852726624485418, 1.010791241013885, 0.569306326616342, 0.411418042742787, 0.171006692706758, 0.460236170091349, 0.257436727324739,-0.036675708446892,-0.293607521466371,-0.142526499131179,-0.956594732774148,-0.594264365858462,-0.335211235699294,-0.363262214338754,-0.032650411303488,-0.235511773208182,-0.047230932226039,-0.355890593828948,-0.060588847005890, 0.663008030759901,-0.341088953599125,-1.032646025265468,-0.636730440915602, 0.063614689216928, 0.079853337773054, 0.100593493159611,-0.137565107547584, 0.084768122620888,-0.177211193438185,-0.407410974442782,-0.344573402344192,-0.236779762815143,-0.219271540050098,-0.480579877821259,-0.162906172873952, 0.137147520368999, 0.225409283145191, 0.276667607001871, 0.349139548791476, 0.431036308699105, 0.435543712171637, 0.372253259560619,-0.036903803998387,-0.207475935181768,-0.270304269823364, 0.608595066178066,-0.083779578788842, 0.409146195043353, 0.132423167242200, 0.144716313082515,-0.022966017300458, 0.405745902278131,-0.222878423766197, 0.362041369392637, 0.020331638377809,-0.177078104249132,-0.144671572997613,-0.200940424612316, 0.187269603006354,-0.537471355935793,-0.332889725139505,-0.202537433160292,-0.182452185299665,-0.243068837732492, 0.187662311474608,-0.016470001329331, 0.004338121232600, 0.098306657130388, 0.063568008639577,-0.181856435171307, 0.001255024054864, 0.002301751569379,-0.049983427564782, 0.520152849043237, 0.391383459182011,-0.170905635675884,-0.245623646906808, 0.300464358784019,-0.266903291089474, 0.098171456107762}, 
		{-0.554005352344003,-0.490441495612366,-0.858659288174455,-0.450365741708145,-0.017399995698786, 0.045727223312357, 0.239928179280400, 0.004311362266516, 0.033215551642531, 0.190920683084745,-0.119966809858424, 0.080670440320118, 0.193738128311945, 0.219928321030952, 0.072357979094930,-0.066541291767756,-0.513091159207166,-0.172456588816592,-0.070204479058754, 0.340726760434842, 0.845052661562182, 0.304173112452638, 0.001639112266688,-0.305170518738071,-0.224496135985441, 0.318103386744847, 0.425571862465005,-0.430676329588170,-0.847710747690247,-0.516983571694304,-0.380648985011820,-0.599862037174015,-0.336421411642203,-0.589875148924527,-0.600455896201286,-0.152668881729755,-0.508130644966055,-0.626517333390724, 0.034251093095714,-0.029418240147355, 0.202752716327814, 0.355291179530609, 0.365261176907521, 0.287515611969360, 0.252962996894464, 0.479504079643544, 0.178505525818610, 0.210264534604163, 0.071285056513675, 0.158340205676890,-0.214303618235148, 0.434029436922467,-0.268500527135312,-0.861972947113961,-0.124800359931651,-0.398717152193757, 0.433668314133026, 0.215887752172107, 0.085188918535848, 0.345499744733049, 0.035566287072810,-0.176489633042439,-0.180574562602659, 0.215116830279487, 0.056565659392574, 0.080067244408496,-0.047157845753445, 0.154785939250345, 0.057020724587583, 0.021462643278989,-0.001704842357147,-0.134819947468234, 0.110557213821165,-0.517172480799671,-0.254556394356330,-0.293178086944129, 0.051834574763892,-0.190694704674429,-0.581990371866427,-0.551486894275843,-1.566112763426429, 0.537997125530243,-0.404997795737328,-0.047377058697579,-0.833388393379621, 0.287709400292064, 0.047342794841219}, 
		{-0.303194740777541,-0.230079939013363,-0.129102401352791,-0.413979222831368,-0.296721446644042,-0.013915610415904,-0.094766272628025,-0.478851645900095,-0.482600044583706,-0.343775317497030,-0.144228553741682,-0.218196355559026,-0.217674700285024,-0.350137898942177, 0.079179838129662,-0.155744079751420, 0.224548266470409, 0.036980600035732,-0.255510858919639,-0.387574252346248,-0.051282816870863,-0.075569843220206,-0.057349737864340,-0.036858186576426,-0.042650209713602, 0.139339468902146, 0.193382500072126,-0.383238955012407,-0.065427721915643, 0.000409482346974, 0.234963797209975, 0.319234627133682,-0.262137723926331,-0.042806970192651, 0.000601451394658,-0.223760085616393,-0.087438861174954,-0.082556741248147,-0.261379223831665,-0.088356623839999, 0.311118273728503,-0.012408932686164, 0.140517732143375,-0.063330337200222, 0.071189011790192,-0.118084954078292,-0.137011619440124,-0.101788269366173,-0.019852401752282, 0.047783220394151,-0.307489462663841,-0.513700053604830,-0.025879237023967,-0.354229801905906, 0.079790139155030,-0.121073998071663, 0.277956768418010, 0.247699726027155, 0.305136518295106, 0.571244082692606, 0.657598483382031, 0.515365962750873, 0.285908025971555, 0.110857018787849, 0.307897811722070, 0.227051174697344, 0.221181295957442, 0.100867910230125, 0.379885953610259, 0.338674448656983, 0.310601748876368, 0.016952305925563, 0.216767723135746,-0.209952949042979,-0.055525470916296,-0.110909117249648,-0.468984279275618,-0.411788607680815,-0.213894366569355, 0.253369080167811,-0.737732695982113,-0.224073465468008, 0.511946822502698, 0.341167642003539, 0.404120057503300,-0.790319558135208,-0.190782448467000}, 
		{-0.407157580585251,-0.330211605096652,-0.177319327146498,-0.165723381082825, 0.130131750280502,-0.281913016546343, 0.008977435681587,-0.156789546150700,-0.424756046729514,-0.141228342096666,-0.169898095347180, 0.016540976448005, 0.133522450764450, 0.342899923884046,-0.178481097086666, 0.168634467802832, 0.251200929931319,-0.343488771863644,-0.175487890488190,-0.282633380090324, 0.033625194825577, 0.064495614912481, 0.085595427587359,-0.581785885835401,-0.291626328307656, 0.015837811710070,-0.342457271338422,-0.014924171687428, 0.345926918015584, 0.307045490296548,-0.094743690368296,-0.080721748798430,-0.095299240778898,-0.103870139492813, 0.311773245532780, 0.212669588185063, 0.008224393578173, 0.313467572344638, 0.271732329557831, 0.192114713648239,-0.026670498406103, 0.247633975742423,-0.178264638255959, 0.032522873068414, 0.001378513356027, 0.143114701057273, 0.062479356140100,-0.012061373525508, 0.108043513197797, 0.139017590278189, 0.130069954666446, 0.092466507648355,-0.006223155713384, 0.299286368368540, 0.021828499710860,-0.540462101364676,-0.672359094397562,-0.445542415423041,-0.079143485162414,-0.040287793048625, 0.049730543254549,-0.096652013764730, 0.102390267561808, 0.270315504523383, 0.168027354510179, 0.206249987130913, 0.566668691050020, 0.090140381000611, 0.577275014106409, 0.300376943023587, 0.177294113093766, 0.111133519093793, 0.138187687369709, 0.227388577925043, 0.373351945700363,-0.766872253464356, 0.396861666691651,-0.019511880126782,-0.375111408719541,-0.492925493763285,-0.721121870701322,-0.018234310002963,-0.153695768898506,-0.441955276968428,-0.199996271582068, 0.275156758687698,-0.104128589429790}, 
		{-0.514920216886447,-0.637535745116500,-0.648975201210464,-0.524388473511268,-0.207375963012350,-0.304651138193987,-0.207585625122270,-0.139727154771029, 0.170206861010467, 0.459767824752664, 0.385102115973161, 0.300315865674334, 0.377817991319810, 0.141498166913221,-0.261931148739532,-0.626159478834380,-0.266811933813055,-0.463275300585532,-0.622238259339849,-0.342097480784730, 0.053882398956275, 0.330809551648068, 0.097650018041492,-0.329659360696075,-0.169429830115777, 0.033663293676001,-0.269967815531067,-0.527785894029339,-0.452277794586735,-0.360640892245755,-0.272132927582677,-0.408666151066116,-0.630902992430290,-0.251431187737123,-0.160081661452236,-0.121355721009646, 0.024627287297380,-0.129904111286516, 0.046909609392492, 0.011833293996115,-0.122579213228094, 0.105023475570840, 0.037602773429493, 0.531182310963088, 0.350366253067713, 0.529486832663094, 0.424180760674385, 0.256577415584996, 0.317430930219251, 0.363103770204713,-0.414997607146499, 0.461575477356029,-0.084053883445862, 0.235750979735100,-0.189922932966753,-0.303958799440359, 0.329500733187517, 0.170728619132238, 0.153123001897324, 0.095036080493264,-0.024421678386138,-0.112801557588291,-0.211878504823574,-0.183931674936141,-0.174647358695539,-0.262122073683261,-0.114975079462716, 0.032360077342534,-0.366952339839866,-0.056002621588595,-0.359358217366774,-0.211206708046991, 0.415069098314925,-0.439182768257855, 0.069232232226614,-0.306863507406684,-0.112194162676153,-0.275852742029998,-0.534614149757699,-0.284978309927575,-0.894124407137666,-0.542080608733018, 0.081527349085575,-0.066628958658605,-0.462560560083247, 0.680860005131080,-0.221239496369946}, 
		{-0.043457565426689, 0.075358214938462,-0.253015893720247,-0.348244183199045,-0.213172432015142,-0.156433357941856,-0.185217760290783,-0.289148335361867,-0.386605081690743,-0.419633544031700,-0.120515599259106,-0.079495923692376,-0.188831797510084,-0.142871765612254, 0.033883705391367,-0.238412163608291, 0.063362937021233, 0.022286902609446,-0.114928282806382,-0.449427135067159,-0.221237189633171, 0.059712937389414,-0.073664750175390,-0.162441763179907,-0.272183656946960,-0.526614520211788,-0.163591728490989, 0.293587821834053, 0.393063266902856, 0.272542489655438, 0.109174263591154, 0.205101771605141, 0.106274323592682, 0.141944293572567,-0.199388852272797, 0.081554214056239,-0.041579325981585, 0.061325574756422,-0.344688659207596, 0.104696109863815, 0.195926370117608, 0.348350406124461, 0.180105132659146, 0.331475230027268, 0.104404921959436, 0.220863518651648, 0.295758383352035, 0.259257192978942, 0.012627268573592, 0.111641577179090,-0.466613820277040, 0.824503366593229, 0.102304467537234,-0.132842074722780,-0.174750277269907,-0.090497817020659,-0.226512318476261,-0.172694831309622,-0.165341288391473,-0.102789228066790,-0.342183513506826,-0.341521261827919,-0.251413656176395,-0.000449294263807, 0.017191083884502,-0.378937008397571, 0.404592014139923,-0.048447330165142,-0.352868559912807,-0.080976461608000,-0.066148789370479,-0.041288235088634, 0.229857575571409, 0.428756210118612,-0.057503253468284, 0.695462749388017,-0.238765908432731, 0.019249208398186,-0.072720166298691, 0.207251886270625, 0.715999386146437, 1.026401314611544, 0.104585058304881,-0.210785254727379, 1.085745211492333,-0.569482127856837, 0.199055502813484}, 
		{ 0.312793990060838, 0.230358982912167,-0.093534823824038,-0.158064553928674,-0.302657615367149,-0.281088341698852,-0.765097192739552,-0.734070130578409,-0.872939858368704,-0.403941786084055,-0.237871901029575,-0.439906276619369,-0.434632756609730, 0.025754718590663, 0.424565045547448, 0.237095001036133, 0.163497598774810,-0.207972259109475,-0.385663191245287,-0.533067585327558, 0.002039744880230, 0.121630558652507, 0.373317586967990, 0.280911922304016, 0.165291619824381,-0.005348270475046,-0.180392936233097,-0.035961206790142,-0.472983009931882,-0.567137964797727,-0.006926989664968,-0.412852894191612,-0.558386891340284,-0.662404533901956,-0.214364005220748, 0.015730868316113, 0.167395576726615, 0.230226076022270, 0.240808678139569, 0.436745990575527, 0.623362137613554, 0.476001083126527, 0.377155027488079, 0.137508664576701, 0.118608106142835,-0.076400788747967, 0.019271373971866,-0.321929031916272, 0.062322683866345, 0.320311696692526,-0.457893982148994,-0.203955670714911,-0.271746818409750, 0.209701444141459, 0.043574148302726, 0.299223830577142,-0.690836027119450,-0.128191571616781,-0.092945062297215, 0.410009542505794, 0.099773226050896, 0.232746551037572, 0.285057239797475,-0.030459905017838, 0.184198695215085, 0.084798251713174, 0.258426778617931, 0.130222922231572, 0.202844280207122,-0.329639763950115,-0.159645533861252,-0.222152323048583, 0.019595618921507,-0.170596639314026,-0.061436733636766, 0.240495232712929,-0.723189713568868,-0.337429825151316,-0.277299115437113,-0.530589666550367, 0.845340540998512, 0.903678248895961,-0.429725650133488,-0.324681870137542, 0.760003402250499,-0.343164035626144, 0.413754241218715}, 
		{-0.272481246849750,-0.302650688205743, 0.360093722344833,-0.022388791642557,-0.263738531523480, 0.201411627127638,-0.460628305212516,-0.474297992919075,-0.539879925646302,-0.246047556206103,-0.058305608301295,-0.124892283589052, 0.279806888898054, 0.480262265390421, 0.563977640156734, 0.117517662433614,-0.020446283684078,-0.652732484397395,-1.153405529454747,-1.005097953945141,-0.070015409113292,-0.058752694614475,-0.336101985874894,-0.093645084039112,-0.081357518646728, 0.105004238455623, 0.352318397482557, 0.317354397861711,-0.578699902804639,-0.459257080125482, 0.124508082411962, 0.036640047531850, 0.529902499610706, 0.589336657631740, 0.268465235803933,-0.495929266777478, 0.047193216346111, 0.137331655811566,-0.256609352986049, 0.009657271720710,-0.111692487588531,-0.185253958574778,-0.178289849155207,-0.165828126504812,-0.300378604715882,-0.282489426194839,-0.093121071357973,-0.083436303698881, 0.216349437867545, 0.269626141915691, 0.126079659680763,-0.392511266975744,-1.220220880755267, 0.324370964958508, 0.506889829497661, 0.769347385393043, 0.442665423662167, 0.279280391276067,-0.041942995118620, 0.280605021253735, 0.610232848058902, 0.354283914631929, 0.318962695719914,-0.524693625909677,-0.162275789607644,-0.697395272255823, 0.071089555046218,-0.441445681501956, 0.073082610402555,-0.458581306384927,-0.078546536323372,-0.086370118652130,-0.126899035743771,-0.099864790559294,-0.778827244463212,-0.167240516870775,-0.129709577490913,-0.428715822933094,-0.199740385064381,-0.444688302914353, 2.027083302859399,-0.015382149444330,-0.298850305859779,-0.157832172673608, 0.242431679392406,-0.776776283613473, 0.104949174923514}, 
		{-0.215143647187423,-0.173634724316997, 0.350572865309986, 0.131950110942754, 0.078254872725663, 0.168239483996341, 0.123679207387606, 0.160420018637298, 0.624848114959554, 0.312144261468944,-0.327014771921306,-0.337990041905168,-0.145527608760730,-0.271044447761898,-0.661143340218070,-0.913914856205524,-0.351973753940777,-0.612789598970568,-0.803999416532359,-0.346705264802253, 0.767193555976118, 0.898072215332937, 0.168566694156202,-0.028726383529377, 0.163614141686028,-0.103121364046726,-0.031689420372080,-0.285064762601525,-0.529257217763976,-1.050772123516250,-0.341569952642347, 0.337173694499695, 0.241658203376841, 0.538005996721258, 0.208250564091265, 0.212657113309038,-0.067001392227507,-0.179467112313810,-0.357739226488283,-0.655202544370087,-0.361525160005510,-0.057048896973962,-0.393392073460370,-0.107366818646942,-0.039608259526313, 0.167359523405735, 0.393931180971888, 0.114921855661467, 0.057527027138041, 0.009808973350318,-0.589165776900103, 1.064728423764532,-0.987983613395029, 0.440485283814895,-0.262785662934117,-0.693164377108466, 0.308658900867023, 0.159412240183010, 0.100655663677275,-0.313186511601630,-0.415845852378744,-0.134342136786060,-0.403624344270602,-0.587321641280614,-0.335617230358703,-0.291717571090649, 0.021342943587572,-0.431291824410575,-0.154942271224179, 0.097521909702867, 0.283185616280821, 0.149889707195037,-0.461081454013534, 0.463971953506261,-0.226996060189893, 0.692940849814011,-0.383954174776307, 0.124179243485240,-0.039306033977967, 0.044638338195506,-1.904006604066625,-0.087758594886306,-0.190894400712487, 0.224820163051288, 0.259847346280619, 0.077832346594557, 0.072148288018131}, 
		{-0.427390968873463,-0.476555623554601,-0.180316537635301,-0.038031025547149,-0.306636387143627, 0.148794342561645,-0.096104280806737,-0.207188726934737, 0.057385789260330,-0.232999479194581,-0.175349062568087, 0.003370563258762,-0.152935322277478,-0.280382898540945,-0.152727215576877,-0.446372101514522,-0.240005525436973, 0.029387408051677,-0.097012323038332,-0.254169419134519, 0.198780574418887,-0.090091807901893,-0.858707055346164,-0.261536731193112, 0.472317656796554, 0.512591755908604,-0.115618343308650,-0.734702968854231,-0.291753944741090, 0.030511970143885, 0.034817328853826,-0.145108140868155, 0.132975686815480, 0.255021938480591,-0.106031484062670,-0.285938924863881, 0.036888021758569,-0.062731817201453,-0.188348019812403,-0.389059331594023, 0.010736499121035,-0.039847842245110, 0.108733006631510, 0.188834633188993, 0.180825494545759,-0.121309559189665, 0.100977585891309, 0.057054645432532, 0.043343803799365,-0.107888758364910, 0.131188787982410,-0.425492135168042, 0.083417630902746,-0.665606994574848,-0.205355956119827,-0.375608582073779, 0.173578911593166, 0.068640948973023, 0.194988389877650, 0.311032305533712, 0.317825786181153, 0.293586460649170, 0.067954450874413,-0.036136510045809,-0.089505172043464,-0.125115551841514,-0.115275173488220, 0.122884149905531,-0.077454571030596,-0.090696346386968, 0.133313168571771,-0.341841608586421,-0.054284028260674,-0.175229260473356,-0.321766999194176,-0.308553813013964, 0.210625653435001,-0.132724285316859, 0.063662472928081, 0.211876786385564,-0.136870827193481, 0.379175629211836, 0.350101808111934, 0.480888278774238,-0.166276274545869, 0.337228137931433,-0.018133929394576}, 
		{ 0.283870470811207, 0.242039704173054, 0.065163681145470, 0.207007658363433,-0.373876740654244,-0.775514848150715,-1.018113621787634,-0.420640814516453,-0.566260446398250, 0.127313460310544,-0.040109056702692,-0.230683146926984,-0.095795414446602,-0.284745815707813,-0.196152764196016, 0.138070212622632, 0.141883163366817,-0.204088603083318, 0.025337451993121,-0.280708130037405,-0.794661971222270,-0.870696450963114,-0.162378530078958, 0.013644636135214, 0.366690364156219, 0.547539580879025,-0.108131044053596,-0.284920777743583, 0.363749906761460, 0.259431386634911,-0.386428175323995,-0.320224704794918,-0.340948276421558,-0.626171376830060,-0.188266808972206,-0.000478626879084, 0.049348062631463, 0.102637580962204, 0.083986529562140, 0.098051798759708,-0.136360270801520, 0.055100176847919, 0.010639875804336, 0.198706113772155, 0.117696759134862, 0.382092450602557,-0.077844382337616, 0.124873313923042,-0.136687157963879,-0.076931138903701,-0.333728118793023,-0.403770791057002,-0.043043633669128, 0.180133770051486,-0.206436133914441,-0.083236604482292, 0.180254119411554, 0.283325828627761, 0.232345973481149, 0.428425376827710, 0.210485543039026, 0.281823257867311, 0.035683146954954, 0.257055387202132, 0.153957136430551, 0.117647500485956,-0.024352506831705, 0.336634160781638,-0.076762201870908, 0.226176986080710, 0.151395125033166,-0.355070268669411,-0.301703623592334,-0.480783299928088,-0.187002638518138, 0.279114687065319,-0.691080240594003,-0.384361897549035, 0.052670353552497, 0.766916989018097, 0.348861221156870, 0.048402112629676, 0.462524791141561, 0.431273140620401, 0.983226443535847,-0.652029834061601, 0.021648779129040}, 
		{-1.064221144316571,-0.594966441357107,-0.362897614856864, 0.112713727414190, 0.292791362022712, 0.254784378906191, 0.409805686674009,-0.361063746799259, 0.015270572058482, 0.032406104204577, 0.241454491511691, 0.113252161322665,-0.060444728269429, 0.087410212592551, 0.021424749638492,-0.181804268340795,-0.273618569683085, 0.062892432680286, 0.417138733789314, 0.040249964801530, 0.373471645190488, 0.194380881824375,-0.227357433719753, 0.012225216690699, 0.128720624822463, 0.080880945796730,-0.227423488107341, 0.049855113725906, 0.303564048164679,-0.523640160700397,-0.498403694530598,-0.620366586706539,-0.344576077152346,-0.535755788710169,-0.380276929275550,-0.244735396427695, 0.029661505745807, 0.232814737607557,-0.032377503701064,-0.145399498462101,-0.204849858236497,-0.014941846095303,-0.143842341243291,-0.316170665239308,-0.198006130399328,-0.195235111934382,-0.102834666584265, 0.032784882090016, 0.033153401450594, 0.248680574964088,-0.418911394083054,-0.246172741924395, 0.631433643713725, 0.261767841354643,-0.016424516287415,-0.508808914791904,-0.078823137138420,-0.008710703617151, 0.370316456913733, 0.202709479650286, 0.220580029096099,-0.125310140484938, 0.097336362979598,-0.265083816182912,-0.158102367943255,-0.092055467315508,-0.054198905946821,-0.194172014788245,-0.112814931475524,-0.274570827178877,-0.164055737568493, 0.004940057975101,-0.268880481385325,-0.157033717859174,-0.681017952319691, 0.635839234529652,-0.717758621438235,-0.445283969683943, 0.475547174998050, 0.657507348930581, 0.254961293148555, 0.199824953723922, 0.499269626306888, 0.414351556488225, 0.992616137460410,-1.085874878848392, 0.912687569039843}, 
		{-0.606399066725359,-0.581734308675216,-0.737743158143218,-0.377584530112728,-0.309400382142447,-0.273993362345583, 0.171314798848121, 0.402591545018355, 0.315093557562884, 0.451269307391919, 0.048821755217342,-0.017745048131821,-0.158493924822628,-0.006768029934572,-0.409569061981086,-0.554686735814885, 0.000826077481729, 0.302416183967215, 0.119155663609843,-0.011729008392272, 0.412457590182763, 0.276799566508052, 0.139690581846038,-0.117415016715627, 0.000998589523141,-0.005791048932015, 0.129160354570793,-0.366081943609519, 0.329838186531491, 0.115626325603939,-0.143070212106261,-0.072819665493613,-0.086830965326522, 0.103351324843295, 0.065440125856906, 0.093105554252746, 0.209986300151729,-0.113991110794057,-0.092967491696880,-0.154761516548564,-0.172736972687110,-0.211858305401802,-0.306942719257230,-0.266394752602975,-0.410717905540058,-0.275692568087279,-0.182031647217255,-0.305740010522242,-0.178721201618582,-0.542625591712358, 0.103465835734220,-0.308114590030448, 0.583151172328663,-0.670873969258486,-0.532368826261690,-0.274147081138845, 0.001730847328461,-0.040434242077640,-0.076334648617635, 0.144666881333565, 0.018801100553621,-0.036454359348858,-0.050777735271956,-0.243415541454489,-0.069058735823057,-0.292594511853512,-0.185833651558029, 0.066422091798185, 0.064550518851423,-0.471999602825474,-0.148495175974194,-0.094194634632002, 0.061900885158113, 0.171386314784852, 0.074827416028099, 0.178716875645003,-0.050947343796299,-0.099505216943621,-0.032768499000290, 0.072293342699455,-0.317275839341933,-0.072009563012052, 0.275496346511014, 0.196691677512997, 0.056483117368845,-0.192815476771979,-0.452965503092794}, 
		{ 0.123322134853886,-0.159146006363229, 0.043857386791178, 0.187148255918466,-0.272520240386253, 0.207258389050474, 0.050311217426375,-0.369339916768803,-0.213064011583336,-0.435952658063251,-0.178922831004769,-0.224744937100440, 0.438212551514268, 0.270398206272893, 0.355242161565462, 0.001522723877019, 0.489218729004542, 0.638303681645095, 0.320710182204687, 0.366911924626081, 0.551877194105405, 0.434309160908824, 0.305128792391643, 0.394440587173146, 0.316071725737529, 0.137228970524753, 0.004121261201910,-0.168236740526643, 0.036628268796229, 0.105484871413301, 0.321635064309007, 0.525750080756161, 0.293761204457413, 0.155566710881924, 0.038093271330042,-0.027839289337198,-0.136693877325271,-0.335446814308316,-0.800538941414227,-0.563747372550644,-0.179741540346769,-0.543741018582916,-0.520034820253769,-0.500779818729968,-0.305918118936891,-0.758325517834091,-0.463234791550607,-1.061097234719336,-0.771616152018069,-0.787043979582015, 0.360960453343267, 0.026341129538943,-0.718657469957276,-0.082215199806064,-0.364280189453231,-0.509375380899085,-0.308751333726596, 0.101004077102299,-0.181803932387965,-0.203191967145590, 0.024752000939389, 0.073973409674530,-0.198509034472765,-0.186984365323100,-0.068951688666426,-0.046317611125852, 0.160421188700790,-0.494611923486159,-0.179555137136712,-0.015950343127855,-0.208352876090391,-0.114806205166865,-0.365829232095997, 0.215643136016002,-0.825033410060798, 0.049656047780222, 0.032501855220439, 0.125313685268609, 0.505972789052694, 0.258388817855752,-0.296997026247831,-1.056878008192653, 0.209004760003781, 0.380338445225605,-0.601585485105444, 0.194674147504785, 0.092917838930860}, 
		{-0.492260151805541,-0.295106009203271, 0.145638905503220, 0.259494642088702, 0.408137385713928, 0.334639175793415,-0.105235441411985,-0.315681602241396,-0.358491832742275,-0.257002839110232,-0.519168395937188,-0.244979562528713, 0.048076052383000, 0.158163497841569, 0.185216866076223, 0.266568568517537, 0.303518710050703,-0.382678849383969, 0.072760961314220, 0.515195185234879, 0.269772639216737,-0.283927747344228,-0.144252664415139,-0.276318476851495,-0.186902559287410,-0.076392250943683,-0.265589176474108,-0.094191592484902, 0.229083028121593, 0.274117623869275, 0.377320508765643, 1.067901851490890, 1.023654183837833, 0.417709778304056, 0.133350747960752, 0.481396315007038, 0.592837507644206, 0.535708309712593, 0.396196019681946, 0.083822638472323,-0.012973468308350, 0.236024666401328,-0.251967382028360,-0.269246565936023,-0.405207982811891,-0.380467838862937,-0.611080788377448,-1.122525463752896,-0.756930328309667,-0.711483425070346, 0.420932360100718,-0.709770400560304, 0.158535037882965,-0.797439677730073, 0.242611889718957,-0.313619026890440, 0.258971485017625, 0.086964457770399,-0.054245894897388,-0.053156629485239,-0.302000222404536, 0.404207978905519, 0.356398481625911, 0.561977321923227, 0.600391719908107, 0.341684614193907, 0.630433532236185, 0.145105073887754, 0.800493417689495,-0.012531312723182, 0.353787465803745, 0.044817885059575, 0.304466456632388, 0.125146702251589, 0.361005039472726,-0.291941024746434,-0.078470870327312,-0.266990797722779,-0.280893594563569,-0.074409456515108,-0.581161853120287, 1.986626702826376, 0.125742997294066,-0.094227596226276, 0.684581180697700,-0.478282229113499, 0.496320111524217}, 
		{-0.287265819711752,-0.436097648002113,-0.623061471105854,-0.439712913590581,-0.159787585360130,-0.099579620832214,-0.184503455607083,-0.146531854808397, 0.013180569307442,-0.258962425402703,-0.485212483519530,-0.595805705287098,-0.408005223860214, 0.161927843049528, 0.349791340228440, 0.225650695274183,-0.727976897780622,-0.573186346356786,-0.050664879150843, 0.738668157688780, 0.624704119765746, 0.165867715900659,-0.196585884086847,-0.396964442035188,-0.449686546459755,-0.210948103232151,-0.473646759042036, 0.908110776448873, 0.110569638009609, 0.108190966374653,-0.002010691632191, 0.352071647945276, 0.797515015821540, 0.999877947120275, 0.872532900147447, 0.511889304735713,-0.010289884525515, 0.046838064407711, 0.153109032012252, 0.182433476620236, 0.130412013950226, 0.062685529568261, 0.267085692162391, 0.044536780601231, 0.073174688145899, 0.120156600003834,-0.279570589387054,-0.453769381634946,-0.565620948287290,-0.837370892391428, 0.301681524888102,-0.281960757730088,-0.213854521890494,-0.285071500146450, 0.205403445458753,-0.247151720065176,-0.484727668682530,-0.158299088441202, 0.012013515405995, 0.098535687589163,-0.244730409232322,-0.291561010988337, 0.149009543273953, 0.394926808734066, 0.462270951433929, 0.380828357597155,-0.000160640950572, 0.277084838491165, 0.123189181173922,-0.091952786217305, 0.163700191835863,-0.055107436033154,-0.207600214423303,-0.141646001744003, 0.144478911815957,-0.288228365310197, 0.074586675708766,-0.161067557300077,-0.136326688912377,-0.127797867230566, 2.216560705572665,-0.106752239211921, 0.228241832714908,-0.352661087965795, 0.036743614447075, 0.739674530675815,-0.564414075725120}, 
		{-0.147368941854007,-0.236460165586468,-0.441723491045074,-0.117113554991270,-0.188448339580719,-0.181535616533307, 0.090468235375081,-0.100726122645382,-0.010269939569830,-0.065604147533485,-0.293997147787700,-0.355336008904872,-0.210545586639918, 0.045869703132746, 0.101025496474867, 0.125480121256227, 0.679673761344087, 0.085110148314412,-0.080263880160464,-0.103466557116461, 0.363042039946206, 0.364604141218011, 0.094065548929134,-0.182580596622233, 0.158601537347282, 0.005911334955865, 0.119120665060116,-0.576889107862742,-0.302787547659927,-0.235030616087125,-0.522680685575886,-0.789696000966178,-0.460203497351545, 0.004135407910790,-0.571314520806073,-0.164053652631015, 0.087204334421651,-0.329301100129337,-0.475184379081658,-0.368733444562064,-0.428252848151995,-0.347765214900886,-0.249614478045182,-0.163385594943387, 0.080971252667932, 0.372008155936205, 0.609291493796065, 0.568276953971141, 0.755567942836772, 0.998725071684456,-0.345089307157498, 0.549139449662167,-1.002092534006202, 0.534799506135146, 0.182800713237084, 0.097745139070214, 0.082988032890565, 0.019329063478350,-0.070453344583110,-0.226036834053035,-0.338597476108068,-0.195110909190414,-0.350891289489322,-0.594970098180131,-0.212167026511218,-0.289714251131784, 0.093575521423168, 0.019479262668423, 0.001420036503694,-0.197171667676045,-0.407824165853520, 0.082906818195789,-0.667697585688822, 0.107152737139216,-0.397298956607996, 0.742299396369359,-0.733041425749050, 0.095335701316756, 0.454238551486417, 0.592183336449220,-0.898998786040678,-0.339000024594020, 0.232514219346742, 0.178412148616837,-0.413013474338304,-0.444393354832567,-0.684493922730706}, 
		{-0.293297846501730,-0.422414806131165,-0.325675299720475,-0.566053829621036,-0.362745735405155,-0.467659386428863,-0.574848129968306, 0.036564031951777,-0.127676556873350, 0.059700977836879,-0.167412428584554, 0.122918248567197,-0.637463561470673,-0.499323425919383, 0.009114613169045, 0.194995002457237,-0.125933764874297,-0.215432918535915,-0.005996651839602, 0.372953481952734, 0.102635184709203,-0.173122179424719, 0.067731346422074, 0.025775833721900,-0.419025694182061,-0.258672146158231,-0.422256704404436,-0.110051824109774, 0.015840221681570,-0.227455111534038,-0.386849253874678,-0.488390688163372, 0.026603888625527, 0.381340902273285, 0.327212958203992, 0.208103798327651, 0.182411633183621, 0.121762414922327, 0.099434017516903, 0.465915745592648, 0.093129101324595, 0.543008319204928, 0.331208995868004,-0.017763729568854, 0.453956470708814, 0.127534501904940, 0.111097901534504, 0.253881169158625, 0.571730629215887, 0.732321288950982,-0.286187833007567, 0.200702761524244,-0.480333418008966, 0.777107029529954,-0.052465915621664, 0.492039876013136,-0.223137271882782,-0.342451738953321,-0.291580434323507,-0.376606473376965,-0.030503364449901,-0.207477574850476, 0.230201128388513, 0.161298260994916, 0.033362508813817,-0.031840711466186, 0.103966240681566, 0.217977835745719, 0.288819016833162, 0.148576762018160, 0.301966733173199, 0.086975869624433, 0.034162693212376,-0.027524540150206, 0.142313780860274,-0.106216635554111,-0.168642087170300,-0.102387775539534,-0.293151336832117,-0.124591137264214,-0.893082607603726, 0.569250986852056,-0.309948369520707,-0.160866556149638,-0.359629529747286,-0.021589048503778, 0.279811038487783}, 
		{-0.098561830557328,-0.216482330022723,-0.544790651610453,-0.383727694218533,-0.145699173680569,-0.189994346176167,-0.026982625139932,-0.363269848272254,-0.387078765531414,-0.258822306644677,-0.278068634600911,-0.175812642307222,-0.034379602414035, 0.261276098969237, 0.330543803513608, 0.126539612073404,-0.228510603872877,-0.529394646389984,-0.178543008701021,-0.382914819396964, 0.335383499186955, 0.474085532091682, 0.289817144807261,-0.274142812087474, 0.043360432262494, 0.156862198480251, 0.277390865030384, 0.163483461664695,-0.525343036640995,-0.337388076258196,-0.305188583917437,-0.317450635119264,-0.327524353484755, 0.180911112893183, 0.026172458740086,-0.164994955283991,-0.369553595739810,-0.315159699487863,-0.074583764642876, 0.143481781136290, 0.102524543898092, 0.202698673928235, 0.173645351336662, 0.158265559106604,-0.022840113253004, 0.205053847767614, 0.062423190235217,-0.036830365192043,-0.037721862618952,-0.266966290960550, 0.179228163323252, 0.221428164229104,-0.498304178325226,-0.672915131248522,-0.026169064237117,-1.105519438964992,-0.269646654200091,-0.354730261770674, 0.063514961447739, 0.125179120220011, 0.124509378893672, 0.199593264303661, 0.222097152209893, 0.142377631423587,-0.019520211821790, 0.053339340543805, 0.523182461988751, 0.149526342120986, 0.422148215677183,-0.136539450927738, 0.119020845771406,-0.221292816050735,-0.164412556914177,-0.321601136311188, 0.216378441932808,-0.579666669375074, 0.379607771022215, 0.102363570684572,-0.446101897171259,-0.753564699356501,-0.578723586498072, 0.327586174167346,-0.574956017337573,-0.201224040648092,-0.231218780562399, 0.487590488502277,-0.207953415243897}, 
		{-0.290951720421275,-0.107322751718523, 0.217758867879372, 0.103311026149278,-0.044673857424839, 0.111662884251917, 0.125726492251848, 0.289338180916300, 0.147339964140971, 0.113988467207520,-0.008940179308796,-0.191666519877160,-0.104128290670367,-0.578041545922028,-0.392909644300105,-0.242375091116537,-0.241917862679181,-0.266205046357849,-0.568278290919955,-0.646227081885929,-0.644318247704700,-0.470877105476266,-0.079458963225273, 0.266051058797152, 0.341949743084072, 0.371881423697487, 0.036462014094992,-0.018886351038995, 0.396845404141264,-0.280003266893170,-0.412401059406491,-0.119165377973953,-0.338916036265321,-0.434380746250608,-0.401090698507447,-0.078233455886181, 0.047807621117121, 0.236313253397246,-0.073861607496763,-0.226870883832205,-0.006472074023411,-0.213645608653910,-0.299908997000405,-0.288123860850960,-0.088077375714139,-0.166098029486154, 0.022058696700855,-0.206415737847375,-0.006123616957856,-0.207939044874256,-0.719562475996583, 0.041196094687479, 0.574278338344722, 0.440220107325341, 0.283451687547372, 0.162815933246913,-0.165685569727927,-0.012403217119979, 0.149092655351034, 0.044048206686912,-0.115989675060449,-0.161131245365735,-0.122345789322331,-0.181890697708611,-0.538474961895814,-0.219503037674978,-0.271245791966928,-0.133497520592526,-0.375337031364467,-0.087852313248606,-0.504115494794790,-0.194931518766345,-0.145293506373239,-0.107586624341658,-0.414230873665486, 0.473598752692731,-0.190608061872337,-0.142590108812618, 0.422558561848928, 0.792401461941879,-0.058777201770846, 0.030878554564090, 0.637733729331056, 0.408786198736415, 0.589754981999512,-0.874098905180693, 0.250449069734580}, 
		{ 0.409979114041000,-0.384423171142333,-0.243956721446560,-0.140590551519656,-0.132274401639498,-0.038706465860713,-0.173143455922373,-0.333938713256141,-0.223282630235613,-0.143776941179113,-0.051843530514057, 0.057726930507223, 0.095538032242089, 0.083254961178119,-0.317911526345806,-0.174606613080843,-0.417017425787346,-0.068059732707704, 0.326495458261080, 0.353806006478888, 0.071621302725382, 0.406892690719341,-0.195658066864122,-0.207087301115737,-0.358935146369999,-0.218777488168544,-0.300478971110278,-0.145974511174661,-0.057403447901362, 0.001330286070460,-0.079895008276604,-0.123146821235373, 0.038836533024185, 0.268282235272376,-0.060494175634708,-0.183451328273331,-0.116031142332491,-0.193203082455620,-0.308158420874419, 0.043686641750320,-0.184406485046995, 0.138470439334421, 0.232307676630518, 0.220387972249170, 0.134244662447044, 0.292207578627688,-0.004258173253814,-0.032202552768013, 0.288283424910201, 0.236870166919125, 0.058301038321461,-0.274250383601767,-0.218274354910092,-0.205150034796345,-0.037871042932870,-0.018796978571250,-0.051436186521793, 0.160605495643011, 0.066374311517436, 0.214714923585310, 0.335045831567760, 0.544261356546838, 0.275616022635831, 0.347699387986271, 0.300414806482585, 0.597800792489872,-0.051261411900168, 0.016895623281496, 0.111931701570914, 0.158478014399470, 0.337576447204577,-0.222947709055890, 0.241644371860102,-0.409903139342256,-0.301063659531326,-0.236785215449279,-0.105598758189986,-0.556983154715820,-0.057582246721302, 0.073955694376729,-0.476102668453063,-0.968573322566397, 0.291677202940022, 0.046737590308650, 0.127948750976600, 0.084598545838058,-0.208290591271439}, 
		{ 0.201988598647815, 0.265142406909499, 0.029471436315676,-0.118555909059063, 0.012372829519280, 0.162288963661526, 0.046150749448754,-0.094916432118366,-0.088496967361664,-0.365703849324142,-0.706857622969822,-0.364950138998465,-0.203329463451431,-0.290473231447054,-0.205510731688954,-0.171318812850031,-0.186202661278358,-0.141208521259544,-0.359121993739720, 0.295049610967978, 0.768797689489247, 0.642102163328011, 0.278095189154879,-0.157117873919865,-0.382420584945715,-0.385284856421413,-0.527864325689746,-0.269704410273377,-0.229476377054365,-0.172466367846770,-0.094287121889861, 0.065094581440392, 0.444003572780361, 0.496367524423497, 0.779086995390728, 0.230467195355427, 0.156076594201431, 0.026924328066654, 0.269133790182992, 0.397027099446377, 0.080850421783451, 0.155639451379321, 0.271817318790541, 0.312126739933128, 0.141233799303631, 0.220146886529991, 0.171602266524692,-0.166031298259210,-0.140567976061256,-0.263020894454019, 0.406187079550274, 0.071302924666057,-0.342352757357911,-0.562463169984810, 0.098532271701382,-0.198243661281598,-0.220255247474859,-0.277656690730071,-0.359468914689168,-0.363567501620788,-0.196541799748039, 0.117868341564297,-0.091467727386778, 0.252324968963268, 0.386566707592518, 0.354052719762151, 0.226572465362694, 0.157284489969600, 0.239303266820147, 0.085661022199651, 0.039888247300225, 0.304360650202719, 0.059711953248027,-0.165378126429434, 0.135769286525194,-0.603745890861217, 0.389837063078706,-0.021839207733662,-0.353654211854220,-0.469661497069236,-0.417187480698420,-0.407231751578745,-0.132405196344146,-0.560308334497865,-0.268878156368546, 0.171696154426145,-0.702961579860664}, 
		{ 0.392214938294510,-0.218722782216251, 0.210904595473269,-0.067237000541904,-0.045682931570762,-0.255753902091743,-0.171921369880789,-0.080235533146991, 0.160896046994426, 0.115691815846786,-0.368141050383692,-0.224026710978284,-0.273780133780545,-0.183827971147060,-0.015338789969571,-0.515123236976153,-0.964962964146351,-1.152466746644549,-0.470774898316812, 1.044881148969730, 1.363294675216858, 0.599540747067472, 0.140087541032644, 0.259462296067723, 0.241214202820842, 0.072661703077615,-0.220020007158659,-0.806913151952179,-0.793551867528905,-0.543725706427195,-0.514309535324368,-0.091760572446562, 0.720380514969478, 0.797583451668707, 0.767426558177208, 0.222626050732650, 0.124182120030537,-0.179366328718584,-0.002599600858293, 0.027588503343336, 0.096956371891692, 0.097460447295611,-0.108740918458870,-0.217612750651862, 0.163014978802628,-0.366377731101270,-0.531782757828151,-0.502210139945482,-0.428808364255062,-0.232503922941657, 0.160288050825892,-0.082845235886222,-0.544451108166536,-0.529183154057344,-0.396669881841484,-0.174536593891883,-0.077601545880322, 0.256677187639537, 0.500757406747717, 0.135367562310682, 0.010518277160789,-0.078592883034387,-0.058425277754364, 0.459853589658872, 0.164622860706963, 0.183916339554895, 0.069743611798950, 0.200613723613383, 0.155513736008810,-0.344030077866737,-0.853300845191457,-0.157928886855861,-0.742023984365769,-0.324492747197110,-0.432539305285601,-0.291202468295395,-0.123720970484333,-0.199252134104111,-0.446635048300969,-0.592042798644673, 0.045832188882078,-0.362104989291697,-0.213886118205405,-0.123321214113323,-0.010651925920108, 0.256269943728161, 0.029560603621513}, 
		{-0.368323109806725,-0.280761039732122,-0.069402230085142,-0.105326537371941,-0.013212447744571,-0.241499852069841,-0.190344282653890,-0.056049482048343, 0.064192798934310,-0.157259061218370,-0.403077910753837,-0.329250994717794,-0.869027461261020,-0.697288834851158,-0.203173951074369,-0.449985693027282,-0.582386503063048,-0.392808131906633,-0.369138467370787,-0.310207897831119, 0.348775653623358,-0.375533959435355,-0.459105908037035, 0.371563557064117, 0.372645861860753, 0.283683892966674,-0.141052214861093, 0.021525512158505, 0.176239081152314,-0.138030243844337,-0.234171236482067,-0.337289605723073, 0.037286416012435, 0.075711179731855,-0.058856174037482,-0.209516940322576,-0.084081736626712,-0.385575760828351,-0.547002723125561,-0.419337452677252,-0.237749698870543,-0.089213723813415,-0.073723528635113, 0.086448730338548, 0.143601666771050, 0.083863896823215,-0.039833080733628, 0.020845595328079, 0.136260644124476, 0.271078058896154,-0.419212583054576, 0.117426354538678, 0.128860186028825,-0.624747277194698, 0.040561077289913, 0.013401229181249,-0.096201655493659, 0.034381310976389, 0.226287519628676, 0.057504320968570, 0.005260610645908, 0.080222971982622,-0.008790750375285,-0.230347657486277,-0.060093984875030,-0.071436068311295,-0.138372620562583, 0.266040714440043, 0.482904422227059, 0.131456222775163, 0.104046268872783, 0.209490784964150, 0.021918033931108, 0.267030101294346,-0.297877281808528,-0.145734097986082,-0.270485682728053,-0.172238493052754,-0.178727129438657, 0.093266708319729, 0.359926784195175, 0.206256880239148, 0.036152507888561, 0.176268843539444, 0.255445055680649,-0.118489764688965, 0.582958187819912}, 
		{-0.451606818998690,-0.338154373312792,-0.030672985717633, 0.029189711360653, 0.514142901964907, 0.501967902367454, 0.264552058552416, 0.532643083388854, 0.357002624441806,-0.054970895010650, 0.054873654653294,-0.141676529943767,-0.165257789363293,-0.259043166210680,-0.940195785921074,-1.046507490622473,-0.926945691438109,-1.109997730991255,-0.742788493031971, 0.489389317438969, 0.625724476024723, 0.277845226425742, 0.028459114362367, 0.166767003483411, 0.010570060801008, 0.279688532077233,-0.066414129858217,-0.539687221118968,-0.363728846145428,-0.231433975295250, 0.025200512727618,-0.139832400276022,-0.249282939963119,-0.151222557076049,-0.423301320850680,-0.919899508621535,-0.343749270801855,-0.138062596487907,-0.001895518482034,-0.061319605590009,-0.059740229626037,-0.454025249586648, 0.097711548759592, 0.180338734890909, 0.103634047605242, 0.003982521330722,-0.149802307624251, 0.019071014039170,-0.172653389384762, 0.031692846308393,-0.618983334427520, 0.096882815582695, 0.666233698661401,-0.285915993349531,-0.660075540273405,-0.166413414194291, 0.120356822804913, 0.327181541279004, 0.184310667182564, 0.090744216561158, 0.465657460094127, 0.487371972570850, 0.257088417518101,-0.047758708551688,-0.032137121859946, 0.154874927723628,-0.248440362940837, 0.155143302174540, 0.406281650930152, 0.287299059504087,-0.311271745005520, 0.183871870881287,-0.080417765395384, 0.184900144835188,-1.361758115308363,-0.254565597472027,-0.224641688940364,-0.310532931696421,-0.168288000931104, 0.242239877803469,-0.184780285318588, 1.049942169167028,-0.316792618948805, 0.032494242488396,-0.069599677672766, 0.329201659650178, 0.057541569921603}, 
