extern double DNN_Weight[3][31][31] = {{{0.462424,0.090062,0.822215,-0.495359,-0.334988,0.841039,-0.988219,0.472109,0.377963,-0.392621,0.410457,-0.455829,-0.711013,-0.255849,-0.709160,0.449023,-1.831403,-0.168435,-0.136915,0.020525,0.790675,0.070849,0.406563,-1.657197,-2.274844,-0.202865,-0.257390,0.090233,-0.891718,-0.255276,-2.158488},{1.112369,0.679639,-0.927192,-0.852665,-0.067239,0.897368,0.353012,0.224077,-0.313915,-0.008915,0.045800,-0.105991,1.516792,0.624637,0.251628,-0.631605,0.695731,-0.563019,-0.435655,0.241409,-0.201764,-0.076231,-0.251759,-0.822679,0.773902,-0.076799,-0.595078,-0.112015,-0.137414,-0.368266,-4.082908},{-1.108358,0.357429,0.465201,0.325604,-0.266354,0.064615,0.224867,-0.180866,0.309191,0.362694,0.287586,-0.360820,-2.054083,-0.804603,0.421143,0.211804,-0.119330,-0.362459,-0.131634,-0.735905,0.512627,0.028094,-0.405273,-0.563312,-1.423660,0.077035,0.537106,0.086476,0.562403,-0.763652,-1.117694},{0.632449,1.100111,-0.374923,0.272022,0.064213,0.198156,-1.275209,0.122455,0.304601,0.143219,0.049011,0.120755,-3.804068,0.003415,0.172175,0.161538,-0.397383,0.317722,0.079302,-0.482236,0.019541,0.201858,0.213276,-0.656278,1.153352,-0.182410,0.855219,0.335820,0.866073,-1.246833,2.699754},{0.537218,-0.357937,0.126396,0.243459,0.449464,-0.676691,0.288157,-0.886779,-0.489331,-0.677743,-0.657573,0.682281,1.894836,1.571764,0.239237,-0.313383,0.015891,0.629085,0.173463,0.396160,-0.738926,-0.073639,-0.151389,3.015320,-2.651495,0.034881,0.525556,1.188467,0.045754,-0.280657,0.348941}},{{-2.805074,-3.484644,-1.721116,3.948533,-4.682030},{0.579300,0.056206,0.975454,-0.309821,-0.198440},{-0.239368,0.007598,-0.953862,-0.406092,0.472317},{-0.133710,-0.246936,0.055708,-0.171932,0.011693},{-0.028386,0.062646,-1.035867,-0.436371,0.456372},{-0.113217,-0.018380,-0.209891,-0.406403,0.043518},{-0.085416,-0.114511,-0.855690,-0.279929,0.106045},{-0.569089,-0.038618,-1.277398,-0.136981,0.568792},{0.034898,-0.107314,0.740972,0.024585,-0.261879},{0.507214,0.157186,1.152517,-0.431144,-0.188931}},{{3.179472,-1.171331,0.903526,-0.302379,1.052274,0.063981,0.719482,1.306314,-0.954146,-1.299207}}}; 
extern long DNN_structure = 3;
extern long DNN_columnList[3] = {5,10,1}; 
extern long DNN_rowList[3] = {31,5,10}; 
extern double DNN_mu_train[30] = {0.010573,-0.014125,4.924952,0.021530,3.435336,3.717606,-3.698845,-0.275155,0.856083,59.951375,-0.462088,2.780353,6.931744,-13.844111,0.035917,0.203326,15.741997,-0.598837,4.092454,5.449962,-7.939886,5.409217,1.712757,2.175020,37.070106,4.583330,4.285221,9.382878,-0.469006,0.739253};
extern double DNN_sigma_train[30] = {1.158524,1.144634,7.268875,0.817513,1.672159,3.293541,3.628668,0.495648,1.984812,88.441631,0.627662,1.503901,4.931059,14.813804,0.481561,0.628849,30.522253,0.915540,2.404947,5.488070,8.517199,3.423472,2.902759,0.625458,50.523817,5.616648,6.710329,33.141394,6.868600,12.550442};
extern double DNN_DesignLayersize[4] = {31,5,10,1};
extern double DNN_mu_output = 0.801405;
extern double DNN_sigma_output = 0.222630;
extern long DNN_FeatureNumber = 30;
